{"learner":{"attributes":{"scikit_learn":"{\"_estimator_type\": \"regressor\"}"},"feature_names":["lst_zscore_norm","ndvi_deficit_norm","income_vuln_norm","cooling_gap_norm","elderly_share_norm","thermal_persistence","heat_poverty_interaction"],"feature_types":["float","float","float","float","float","float","float"],"gradient_booster":{"model":{"gbtree_model_param":{"num_parallel_tree":"1","num_trees":"300"},"iteration_indptr":[0,1,2,3,4,5,6,7,8,9,10,11,12,13,14,15,16,17,18,19,20,21,22,23,24,25,26,27,28,29,30,31,32,33,34,35,36,37,38,39,40,41,42,43,44,45,46,47,48,49,50,51,52,53,54,55,56,57,58,59,60,61,62,63,64,65,66,67,68,69,70,71,72,73,74,75,76,77,78,79,80,81,82,83,84,85,86,87,88,89,90,91,92,93,94,95,96,97,98,99,100,101,102,103,104,105,106,107,108,109,110,111,112,113,114,115,116,117,118,119,120,121,122,123,124,125,126,127,128,129,130,131,132,133,134,135,136,137,138,139,140,141,142,143,144,145,146,147,148,149,150,151,152,153,154,155,156,157,158,159,160,161,162,163,164,165,166,167,168,169,170,171,172,173,174,175,176,177,178,179,180,181,182,183,184,185,186,187,188,189,190,191,192,193,194,195,196,197,198,199,200,201,202,203,204,205,206,207,208,209,210,211,212,213,214,215,216,217,218,219,220,221,222,223,224,225,226,227,228,229,230,231,232,233,234,235,236,237,238,239,240,241,242,243,244,245,246,247,248,249,250,251,252,253,254,255,256,257,258,259,260,261,262,263,264,265,266,267,268,269,270,271,272,273,274,275,276,277,278,279,280,281,282,283,284,285,286,287,288,289,290,291,292,293,294,295,296,297,298,299,300],"tree_info":[0,0,0,0,0,0,0,0,0,0,0,0,0,0,0,0,0,0,0,0,0,0,0,0,0,0,0,0,0,0,0,0,0,0,0,0,0,0,0,0,0,0,0,0,0,0,0,0,0,0,0,0,0,0,0,0,0,0,0,0,0,0,0,0,0,0,0,0,0,0,0,0,0,0,0,0,0,0,0,0,0,0,0,0,0,0,0,0,0,0,0,0,0,0,0,0,0,0,0,0,0,0,0,0,0,0,0,0,0,0,0,0,0,0,0,0,0,0,0,0,0,0,0,0,0,0,0,0,0,0,0,0,0,0,0,0,0,0,0,0,0,0,0,0,0,0,0,0,0,0,0,0,0,0,0,0,0,0,0,0,0,0,0,0,0,0,0,0,0,0,0,0,0,0,0,0,0,0,0,0,0,0,0,0,0,0,0,0,0,0,0,0,0,0,0,0,0,0,0,0,0,0,0,0,0,0,0,0,0,0,0,0,0,0,0,0,0,0,0,0,0,0,0,0,0,0,0,0,0,0,0,0,0,0,0,0,0,0,0,0,0,0,0,0,0,0,0,0,0,0,0,0,0,0,0,0,0,0,0,0,0,0,0,0,0,0,0,0,0,0,0,0,0,0,0,0,0,0,0,0,0,0,0,0,0,0,0,0,0,0,0,0,0,0,0,0,0,0,0,0],"trees":[{"base_weights":[-1.6797111E0,-2.369397E1,3.138117E1,-2.6040274E1,-7.493777E0,1.4090162E1,3.918091E1,-2.8253628E1,-4.3456244E0,2.2244172E-1,-5.7778925E-1,4.8581276E-2,1.5016848E1,1.2118536E0,2.1145835E0,-3.1541872E-1,-1.4295692E0,-3.0450308E-1,-2.6891682E-2,3.8062194E-1,8.233463E-1],"categories":[],"categories_nodes":[],"categories_segments":[],"categories_sizes":[],"default_left":[0,0,0,0,0,0,0,0,0,0,0,0,0,0,0,0,0,0,0,0,0],"id":0,"left_children":[1,3,5,7,9,11,13,15,17,-1,-1,-1,19,-1,-1,-1,-1,-1,-1,-1,-1],"loss_changes":[7.279605E4,2.0821406E3,4.8372227E3,2.3708945E3,4.887193E2,1.5400513E2,2.2346094E2,1.6451562E2,3.591648E1,0E0,0E0,0E0,1.1819092E1,0E0,0E0,0E0,0E0,0E0,0E0,0E0,0E0],"parents":[2147483647,0,0,1,1,2,2,3,3,4,4,5,5,6,6,7,7,8,8,12,12],"right_children":[2,4,6,8,10,12,14,16,18,-1,-1,-1,20,-1,-1,-1,-1,-1,-1,-1,-1],"split_conditions":[5.326195E-1,6.8456376E-1,5.771812E-1,2.7018368E-1,7.785235E-1,6.7114094E-3,6.455574E-1,2.0134227E-2,1.2080537E-1,2.2244172E-1,-5.7778925E-1,4.8581276E-2,3.2816792E-1,1.2118536E0,2.1145835E0,-3.1541872E-1,-1.4295692E0,-3.0450308E-1,-2.6891682E-2,3.8062194E-1,8.233463E-1],"split_indices":[1,2,2,1,2,2,1,2,2,0,0,0,3,0,0,0,0,0,0,0,0],"split_type":[0,0,0,0,0,0,0,0,0,0,0,0,0,0,0,0,0,0,0,0,0],"sum_hessian":[9.8E1,5.9E1,3.9E1,5.1E1,8E0,1.3E1,2.6E1,4.6E1,5E0,2E0,6E0,1E0,1.2E1,6E0,2E1,1E0,4.5E1,3E0,2E0,3E0,9E0],"tree_param":{"num_deleted":"0","num_feature":"7","num_nodes":"21","size_leaf_vector":"1"}},{"base_weights":[8.697219E-2,-2.275928E1,3.0734701E1,-2.8940437E1,-9.519169E0,1.2586433E1,3.7806866E1,-1.4991193E0,-6.411888E-1,-1.1403872E1,2.1502696E-1,7.174292E-2,1.447446E1,3.8803497E-1,1.9299603E0,-7.21225E-1,-2.5068793E-1,4.1369626E-1,8.4106743E-1],"categories":[],"categories_nodes":[],"categories_segments":[],"categories_sizes":[],"default_left":[0,0,0,0,0,0,0,0,0,0,0,0,0,0,0,0,0,0,0],"id":1,"left_children":[1,3,5,7,9,11,13,-1,-1,15,-1,-1,17,-1,-1,-1,-1,-1,-1],"loss_changes":[6.7217945E4,4.2218223E3,4.7813555E3,2.325625E2,5.446282E2,2.5134839E2,3.8620312E2,0E0,0E0,2.5387183E2,0E0,0E0,1.83833E1,0E0,0E0,0E0,0E0,0E0,0E0],"parents":[2147483647,0,0,1,1,2,2,3,3,4,4,5,5,6,6,9,9,12,12],"right_children":[2,4,6,8,10,12,14,-1,-1,16,-1,-1,18,-1,-1,-1,-1,-1,-1],"split_conditions":[5.326195E-1,2.965671E-1,5.503356E-1,6.6442955E-1,6.0427326E-1,9.3959734E-2,4.9471176E-1,-1.4991193E0,-6.411888E-1,2.7018368E-1,2.1502696E-1,7.174292E-2,5.369894E-1,3.8803497E-1,1.9299603E0,-7.21225E-1,-2.5068793E-1,4.1369626E-1,8.4106743E-1],"split_indices":[1,0,2,2,0,2,0,0,0,1,0,0,0,0,0,0,0,0,0],"split_type":[0,0,0,0,0,0,0,0,0,0,0,0,0,0,0,0,0,0,0],"sum_hessian":[9.4E1,5.4E1,4E1,3.6E1,1.8E1,1.2E1,2.8E1,3.3E1,3E0,1.6E1,2E0,2E0,1E1,1E0,2.7E1,1E1,6E0,4E0,6E0],"tree_param":{"num_deleted":"0","num_feature":"7","num_nodes":"19","size_leaf_vector":"1"}},{"base_weights":[7.6558876E-1,-2.1317833E1,3.0009483E1,-2.5143618E1,-6.142768E0,1.6538738E1,1.8311507E0,-2.5707872E1,-4.7729358E-2,-8.628478E0,2.078594E-1,8.899867E0,1.1048883E0,-1.4125243E0,-9.705321E-1,-6.1827964E-1,-2.0297341E-1,5.132881E-1,1.5840618E-1],"categories":[],"categories_nodes":[],"categories_segments":[],"categories_sizes":[],"default_left":[0,0,0,0,0,0,0,0,0,0,0,0,0,0,0,0,0,0,0],"id":2,"left_children":[1,3,5,7,9,11,-1,13,-1,15,-1,17,-1,-1,-1,-1,-1,-1,-1],"loss_changes":[6.0054695E4,2.919416E3,2.9525508E3,5.46041E2,3.4354977E2,4.372036E2,0E0,1.033418E2,0E0,1.18908875E2,0E0,2.8765015E1,0E0,0E0,0E0,0E0,0E0,0E0,0E0],"parents":[2147483647,0,0,1,1,2,2,3,3,4,4,5,5,7,7,9,9,11,11],"right_children":[2,4,6,8,10,12,-1,14,-1,16,-1,18,-1,-1,-1,-1,-1,-1,-1],"split_conditions":[4.4248056E-1,3.3634672E-1,7.1450084E-1,2.7018368E-1,5.0727427E-1,5.975433E-1,1.8311507E0,2.5974882E-1,-4.7729358E-2,2.4136133E-3,2.078594E-1,6.800577E-1,1.1048883E0,-1.4125243E0,-9.705321E-1,-6.1827964E-1,-2.0297341E-1,5.132881E-1,1.5840618E-1],"split_indices":[1,0,1,1,0,0,0,0,0,1,0,1,0,0,0,0,0,0,0],"split_type":[0,0,0,0,0,0,0,0,0,0,0,0,0,0,0,0,0,0,0],"sum_hessian":[9.1E1,5.2E1,3.9E1,4.1E1,1.1E1,1.4E1,2.5E1,4E1,1E0,9E0,2E0,7E0,7E0,2.6E1,1.4E1,4E0,5E0,5E0,2E0],"tree_param":{"num_deleted":"0","num_feature":"7","num_nodes":"19","size_leaf_vector":"1"}},{"base_weights":[-4.1774157E-1,-2.0300304E1,2.6870375E1,-2.2855204E1,-3.5558467E0,1.3566666E1,3.3509266E1,-2.6273548E1,-1.1937182E1,-4.19502E0,3.643852E-2,4.056452E0,8.1951827E-1,6.7277706E-1,1.7265247E0,-1.3342338E0,-2.7404568E-1,-7.2030103E-1,-1.0692914E-1,-2.721043E-1,-1.346077E-2,5.815662E-2,2.7821437E-1],"categories":[],"categories_nodes":[],"categories_segments":[],"categories_sizes":[],"default_left":[0,0,0,0,0,0,0,0,0,0,0,0,0,0,0,0,0,0,0,0,0,0,0],"id":3,"left_children":[1,3,5,7,9,11,13,15,17,19,-1,21,-1,-1,-1,-1,-1,-1,-1,-1,-1,-1,-1],"loss_changes":[5.534315E4,2.4401328E3,3.3385254E3,1.5859453E3,2.8051346E1,3.6113257E2,1.0399609E2,1.7536719E2,3.0621326E2,3.712967E1,0E0,1.4668503E1,0E0,0E0,0E0,0E0,0E0,0E0,0E0,0E0,0E0,0E0,0E0],"parents":[2147483647,0,0,1,1,2,2,3,3,4,4,5,5,6,6,7,7,8,8,9,9,11,11],"right_children":[2,4,6,8,10,12,14,16,18,20,-1,22,-1,-1,-1,-1,-1,-1,-1,-1,-1,-1,-1],"split_conditions":[5.326195E-1,2.7018368E-1,5.771812E-1,5.637584E-1,9.5566887E-1,1.8791947E-1,6.050513E-1,8.142409E-1,3.3719105E-1,3.2255846E-1,3.643852E-2,6.8957573E-1,8.1951827E-1,6.7277706E-1,1.7265247E0,-1.3342338E0,-2.7404568E-1,-7.2030103E-1,-1.0692914E-1,-2.721043E-1,-1.346077E-2,5.815662E-2,2.7821437E-1],"split_indices":[1,1,2,2,3,2,1,3,3,4,0,1,0,0,0,0,0,0,0,0,0,0,0],"split_type":[0,0,0,0,0,0,0,0,0,0,0,0,0,0,0,0,0,0,0,0,0,0,0],"sum_hessian":[1E2,5.8E1,4.2E1,5E1,8E0,1.5E1,2.7E1,3.7E1,1.3E1,7E0,1E0,4E0,1.1E1,2E0,2.5E1,3.6E1,1E0,1E1,3E0,5E0,2E0,2E0,2E0],"tree_param":{"num_deleted":"0","num_feature":"7","num_nodes":"23","size_leaf_vector":"1"}},{"base_weights":[9.703095E-1,-2.011652E1,2.2883207E1,-2.4869413E1,-8.862365E0,8.885051E0,3.117288E1,-1.2910593E0,-2.8797707E-1,-1.3772305E1,-4.038177E0,-2.7445493E0,1.1104659E1,1.2363547E0,2.0317743E0,-8.176657E-1,-1.993092E-1,-3.2928723E-1,-6.1275404E-2,-4.0183607E-1,8.325409E-2,2.9014227E-1,7.5807554E-1],"categories":[],"categories_nodes":[],"categories_segments":[],"categories_sizes":[],"default_left":[0,0,0,0,0,0,0,0,0,0,0,0,0,0,0,0,0,0,0,0,0,0,0],"id":4,"left_children":[1,3,5,7,9,11,13,-1,-1,15,17,19,21,-1,-1,-1,-1,-1,-1,-1,-1,-1,-1],"loss_changes":[4.7130035E4,2.5576914E3,5.5210293E3,5.029004E2,3.452738E2,5.4757654E2,8.7948047E2,0E0,0E0,1.3484338E2,6.2802612E1,1.0736507E2,2.7557104E2,0E0,0E0,0E0,0E0,0E0,0E0,0E0,0E0,0E0,0E0],"parents":[2147483647,0,0,1,1,2,2,3,3,4,4,5,5,6,6,9,9,10,10,11,11,12,12],"right_children":[2,4,6,8,10,12,14,-1,-1,16,18,20,22,-1,-1,-1,-1,-1,-1,-1,-1,-1,-1],"split_conditions":[4.2609283E-1,2.965671E-1,5.771812E-1,6.8456376E-1,5.192232E-1,2.7128285E-1,7.354857E-1,-1.2910593E0,-2.8797707E-1,3.3634672E-1,1.2080537E-1,5.0727427E-1,5.369894E-1,1.2363547E0,2.0317743E0,-8.176657E-1,-1.993092E-1,-3.2928723E-1,-6.1275404E-2,-4.0183607E-1,8.325409E-2,2.9014227E-1,7.5807554E-1],"split_indices":[0,0,2,2,3,3,0,0,0,0,2,0,0,0,0,0,0,0,0,0,0,0,0],"split_type":[0,0,0,0,0,0,0,0,0,0,0,0,0,0,0,0,0,0,0,0,0,0,0],"sum_hessian":[1E2,5.1E1,4.9E1,3.5E1,1.6E1,1.9E1,3E1,3.3E1,2E0,7E0,9E0,3E0,1.6E1,2E1,1E1,5E0,2E0,4E0,5E0,1E0,2E0,8E0,8E0],"tree_param":{"num_deleted":"0","num_feature":"7","num_nodes":"23","size_leaf_vector":"1"}},{"base_weights":[-8.7904096E-1,-1.9269054E1,2.0592205E1,-2.319896E1,-8.882866E0,1.1095803E1,1.724873E0,-2.7314695E1,-1.7207108E1,-1.401881E1,-3.875824E0,-4.6932917E0,1.3709252E1,-1.4159721E0,-5.7390803E-1,-8.912576E-1,-1.4955832E-1,-8.2971746E-1,-2.0807305E-1,-3.161157E-1,-5.8722265E-2,-4.7325322E-1,8.04789E-2,3.1357712E-1,8.636033E-1],"categories":[],"categories_nodes":[],"categories_segments":[],"categories_sizes":[],"default_left":[0,0,0,0,0,0,0,0,0,0,0,0,0,0,0,0,0,0,0,0,0,0,0,0,0],"id":5,"left_children":[1,3,5,7,9,11,-1,13,15,17,19,21,23,-1,-1,-1,-1,-1,-1,-1,-1,-1,-1,-1,-1],"loss_changes":[4.1066883E4,2.076455E3,5.9510586E3,5.1197656E2,3.8104614E2,1.3031626E3,0E0,2.1023438E1,1.11535645E2,1.3197156E2,5.7914047E1,1.663996E2,5.7830176E2,0E0,0E0,0E0,0E0,0E0,0E0,0E0,0E0,0E0,0E0,0E0,0E0],"parents":[2147483647,0,0,1,1,2,2,3,3,4,4,5,5,7,7,8,8,9,9,10,10,11,11,12,12],"right_children":[2,4,6,8,10,12,-1,14,16,18,20,22,24,-1,-1,-1,-1,-1,-1,-1,-1,-1,-1,-1,-1],"split_conditions":[4.2609283E-1,2.965671E-1,5.301126E-1,4.135203E-2,5.192232E-1,2.869753E-1,1.724873E0,2.5974882E-1,9.328859E-1,6.107383E-1,1.2080537E-1,5.0727427E-1,5.369894E-1,-1.4159721E0,-5.7390803E-1,-8.912576E-1,-1.4955832E-1,-8.2971746E-1,-2.0807305E-1,-3.161157E-1,-5.8722265E-2,-4.7325322E-1,8.04789E-2,3.1357712E-1,8.636033E-1],"split_indices":[0,0,6,6,3,3,0,0,2,2,2,0,0,0,0,0,0,0,0,0,0,0,0,0,0],"split_type":[0,0,0,0,0,0,0,0,0,0,0,0,0,0,0,0,0,0,0,0,0,0,0,0,0],"sum_hessian":[1.02E2,5.5E1,4.7E1,3.9E1,1.6E1,2.9E1,1.8E1,2.1E1,1.8E1,7E0,9E0,4E0,2.5E1,1.9E1,2E0,1.7E1,1E0,5E0,2E0,4E0,5E0,2E0,2E0,9E0,1.6E1],"tree_param":{"num_deleted":"0","num_feature":"7","num_nodes":"25","size_leaf_vector":"1"}},{"base_weights":[-2.2440948E-1,-1.9068748E1,2.3762123E1,-2.3822184E1,-1.1208509E1,9.247476E0,3.0224043E1,-1.3521235E0,-8.9668286E-1,-1.5564487E1,-6.6527967E0,-1.311811E-1,1.0289956E1,1.2300286E0,1.8300434E0,-8.1719106E-1,-1.9177906E-1,-5.080464E-1,-1.0899901E-1,3.5447083E-2,5.4823655E-1],"categories":[],"categories_nodes":[],"categories_segments":[],"categories_sizes":[],"default_left":[0,0,0,0,0,0,0,0,0,0,0,0,0,0,0,0,0,0,0,0,0],"id":6,"left_children":[1,3,5,7,9,11,13,-1,-1,15,17,-1,19,-1,-1,-1,-1,-1,-1,-1,-1],"loss_changes":[4.520167E4,1.8218223E3,3.8434258E3,1.5526562E2,3.506565E2,2.1339441E2,1.6927344E2,0E0,0E0,3.5841797E1,1.8060126E2,0E0,8.15697E1,0E0,0E0,0E0,0E0,0E0,0E0,0E0,0E0],"parents":[2147483647,0,0,1,1,2,2,3,3,4,4,5,5,6,6,9,9,10,10,12,12],"right_children":[2,4,6,8,10,12,14,-1,-1,16,18,-1,20,-1,-1,-1,-1,-1,-1,-1,-1],"split_conditions":[4.2609283E-1,2.669132E-1,3.4649685E-1,4.135203E-2,3.9505687E-1,2.7128285E-1,7.354857E-1,-1.3521235E0,-8.9668286E-1,6.442953E-1,3.7146166E-2,-1.311811E-1,9.3959734E-2,1.2300286E0,1.8300434E0,-8.1719106E-1,-1.9177906E-1,-5.080464E-1,-1.0899901E-1,3.5447083E-2,5.4823655E-1],"split_indices":[0,0,6,6,3,3,0,0,0,2,6,0,2,0,0,0,0,0,0,0,0],"split_type":[0,0,0,0,0,0,0,0,0,0,0,0,0,0,0,0,0,0,0,0,0],"sum_hessian":[9.8E1,5.5E1,4.3E1,3.3E1,2.2E1,1.4E1,2.9E1,1.9E1,1.4E1,1E1,1.2E1,1E0,1.3E1,1.8E1,1.1E1,9E0,1E0,6E0,6E0,1E0,1.2E1],"tree_param":{"num_deleted":"0","num_feature":"7","num_nodes":"21","size_leaf_vector":"1"}},{"base_weights":[7.9050195E-1,-1.4950805E1,2.417108E1,-2.0026415E1,-5.7747498E0,1.6342316E1,1.5760657E0,-1.0565896E0,-9.147799E0,-9.298807E0,-3.169382E-2,-1.0570661E0,1.8339863E1,-5.087863E-1,-1.23402275E-1,-5.791394E-1,-2.83607E-1,-1.4851527E-1,2.1795733E-1,-1.2790161E-1,4.6121653E-2,1.0019925E0,1.563327E-1],"categories":[],"categories_nodes":[],"categories_segments":[],"categories_sizes":[],"default_left":[0,0,0,0,0,0,0,0,0,0,0,0,0,0,0,0,0,0,0,0,0,0,0],"id":7,"left_children":[1,3,5,7,9,11,-1,-1,13,15,17,19,21,-1,-1,-1,-1,-1,-1,-1,-1,-1,-1],"loss_changes":[3.3854016E4,2.4433467E3,1.6091816E3,2.2453711E2,4.2378827E2,7.162363E2,0E0,0E0,7.9529724E0,4.0257446E1,1.2893588E2,1.1436658E1,4.005459E2,0E0,0E0,0E0,0E0,0E0,0E0,0E0,0E0,0E0,0E0],"parents":[2147483647,0,0,1,1,2,2,3,3,4,4,5,5,8,8,9,9,10,10,11,11,12,12],"right_children":[2,4,6,8,10,12,-1,-1,14,16,18,20,22,-1,-1,-1,-1,-1,-1,-1,-1,-1,-1],"split_conditions":[5.0727427E-1,2.965671E-1,5.301126E-1,1.4378351E-1,5.961161E-1,3.7269518E-1,1.5760657E0,-1.0565896E0,3.3719105E-1,2.869753E-1,4.2304662E-1,6.0427326E-1,5.1111877E-1,-5.087863E-1,-1.23402275E-1,-5.791394E-1,-2.83607E-1,-1.4851527E-1,2.1795733E-1,-1.2790161E-1,4.6121653E-2,1.0019925E0,1.563327E-1],"split_indices":[0,0,6,6,3,3,0,0,3,3,0,0,6,0,0,0,0,0,0,0,0,0,0],"split_type":[0,0,0,0,0,0,0,0,0,0,0,0,0,0,0,0,0,0,0,0,0,0,0],"sum_hessian":[9E1,5.4E1,3.6E1,3.4E1,2E1,1.9E1,1.7E1,3E1,4E0,1.2E1,8E0,2E0,1.7E1,3E0,1E0,6E0,6E0,5E0,3E0,1E0,1E0,1.5E1,2E0],"tree_param":{"num_deleted":"0","num_feature":"7","num_nodes":"23","size_leaf_vector":"1"}},{"base_weights":[1.1909736E0,-1.3889149E1,2.2652874E1,-1.8433254E1,-1.0865506E0,1.8284475E1,1.6249123E0,-2.1751364E1,-1.2795143E1,-5.0849354E-1,1.7842056E0,9.207869E0,2.0642231E1,-1.155831E0,-4.3898106E-1,-7.3573506E-1,-1.186507E-1,-1.7149633E-1,2.7421397E-1,1.143911E-1,4.9276644E-1,2.6356313E-1,1.0548382E0],"categories":[],"categories_nodes":[],"categories_segments":[],"categories_sizes":[],"default_left":[0,0,0,0,0,0,0,0,0,0,0,0,0,0,0,0,0,0,0,0,0,0,0],"id":8,"left_children":[1,3,5,7,9,11,-1,13,15,-1,17,19,21,-1,-1,-1,-1,-1,-1,-1,-1,-1,-1],"loss_changes":[3.1385723E4,3.2940713E3,1.1210488E3,5.0396387E2,4.3619965E2,4.4895605E2,0E0,2.3659863E2,3.2347925E2,0E0,2.6982083E2,1.2082092E1,4.6848633E1,0E0,0E0,0E0,0E0,0E0,0E0,0E0,0E0,0E0,0E0],"parents":[2147483647,0,0,1,1,2,2,3,3,4,4,5,5,7,7,8,8,10,10,11,11,12,12],"right_children":[2,4,6,8,10,12,-1,14,16,-1,18,20,22,-1,-1,-1,-1,-1,-1,-1,-1,-1,-1],"split_conditions":[5.0727427E-1,3.3634672E-1,7.2514904E-1,2.4499679E-1,2.869753E-1,5.3691274E-1,1.6249123E0,6.6442955E-1,6.176932E-1,-5.0849354E-1,1.2080537E-1,5.369894E-1,6.396148E-2,-1.155831E0,-4.3898106E-1,-7.3573506E-1,-1.186507E-1,-1.7149633E-1,2.7421397E-1,1.143911E-1,4.9276644E-1,2.6356313E-1,1.0548382E0],"split_indices":[0,0,0,0,3,2,0,2,3,0,2,0,4,0,0,0,0,0,0,0,0,0,0],"split_type":[0,0,0,0,0,0,0,0,0,0,0,0,0,0,0,0,0,0,0,0,0,0,0],"sum_hessian":[9.5E1,5.6E1,3.9E1,4.1E1,1.5E1,2.9E1,1E1,2.4E1,1.7E1,3E0,1.2E1,7E0,2.2E1,2.1E1,3E0,1.4E1,3E0,5E0,7E0,1E0,6E0,1E0,2.1E1],"tree_param":{"num_deleted":"0","num_feature":"7","num_nodes":"23","size_leaf_vector":"1"}},{"base_weights":[3.4286112E-1,-1.2429097E1,1.9962143E1,-1.7051954E1,-4.202292E0,5.838812E0,2.432648E1,-1.1836417E0,-1.2572525E1,-1.1489296E1,4.03382E0,-1.1087655E0,4.9907684E-1,1.8598629E1,1.5409498E0,4.5938548E-2,-6.576464E-1,1.4146576E-2,-6.251113E-1,3.3572248E-1,-1.4905255E-1,2.445334E-1,-1.9281454E-1,5.008534E-1,1.0106287E0],"categories":[],"categories_nodes":[],"categories_segments":[],"categories_sizes":[],"default_left":[0,0,0,0,0,0,0,0,0,0,0,0,0,0,0,0,0,0,0,0,0,0,0,0,0],"id":9,"left_children":[1,3,5,7,9,11,13,-1,15,17,19,21,-1,23,-1,-1,-1,-1,-1,-1,-1,-1,-1,-1,-1],"loss_changes":[2.605826E4,2.3221924E3,2.3821445E3,8.850576E2,1.4874893E3,3.2855536E2,5.747012E2,0E0,2.1689795E2,1.597771E2,2.460407E2,1.0117438E2,0E0,5.765869E1,0E0,0E0,0E0,0E0,0E0,0E0,0E0,0E0,0E0,0E0,0E0],"parents":[2147483647,0,0,1,1,2,2,3,3,4,4,5,5,6,6,8,8,9,9,10,10,11,11,13,13],"right_children":[2,4,6,8,10,12,14,-1,16,18,20,22,-1,24,-1,-1,-1,-1,-1,-1,-1,-1,-1,-1,-1],"split_conditions":[2.679855E-1,4.8744607E-1,3.4649685E-1,4.135203E-2,5.4333985E-2,2.7128285E-1,5.7371885E-1,-1.1836417E0,9.3959734E-2,6.7114094E-3,3.0201343E-1,5.100671E-1,4.9907684E-1,3.852491E-1,1.5409498E0,4.5938548E-2,-6.576464E-1,1.4146576E-2,-6.251113E-1,3.3572248E-1,-1.4905255E-1,2.445334E-1,-1.9281454E-1,5.008534E-1,1.0106287E0],"split_indices":[6,3,6,6,6,3,6,0,2,2,2,2,0,3,0,0,0,0,0,0,0,0,0,0,0],"split_type":[0,0,0,0,0,0,0,0,0,0,0,0,0,0,0,0,0,0,0,0,0,0,0,0,0],"sum_hessian":[1.02E2,6.2E1,4E1,3.9E1,2.3E1,1E1,3E1,1.4E1,2.5E1,1.2E1,1.1E1,4E0,6E0,1.8E1,1.2E1,1E0,2.4E1,1E0,1.1E1,8E0,3E0,1E0,3E0,4E0,1.4E1],"tree_param":{"num_deleted":"0","num_feature":"7","num_nodes":"25","size_leaf_vector":"1"}},{"base_weights":[5.039058E-1,-1.2301935E1,2.0795998E1,-1.55302725E1,-3.0040412E0,5.7345257E0,2.4849709E1,-1.0288275E0,-1.1187339E1,-9.912377E0,4.994559E0,4.8566785E-1,-1.6697739E-1,1.9562256E1,1.5532521E0,-6.456486E-1,-1.3455953E-1,1.3792953E-2,-5.543083E-1,3.4998515E-1,-6.5781504E-2,-1.536792E-1,2.8398624E-1,3.0417383E-1,1.0788566E0],"categories":[],"categories_nodes":[],"categories_segments":[],"categories_sizes":[],"default_left":[0,0,0,0,0,0,0,0,0,0,0,0,0,0,0,0,0,0,0,0,0,0,0,0,0],"id":10,"left_children":[1,3,5,7,9,11,13,-1,15,17,19,-1,21,23,-1,-1,-1,-1,-1,-1,-1,-1,-1,-1,-1],"loss_changes":[2.7541697E4,1.902581E3,2.3576895E3,8.185781E2,1.044626E3,2.3738739E2,4.3886133E2,0E0,3.7420288E2,1.2372754E2,1.23652985E2,0E0,1.02166824E2,4.0913135E2,0E0,0E0,0E0,0E0,0E0,0E0,0E0,0E0,0E0,0E0,0E0],"parents":[2147483647,0,0,1,1,2,2,3,3,4,4,5,5,6,6,8,8,9,9,10,10,12,12,13,13],"right_children":[2,4,6,8,10,12,14,-1,16,18,20,-1,22,24,-1,-1,-1,-1,-1,-1,-1,-1,-1,-1,-1],"split_conditions":[2.2706269E-1,5.937623E-1,3.4649685E-1,4.135203E-2,5.4333985E-2,5.503356E-1,4E-1,-1.0288275E0,3.946646E-1,6.7114094E-3,3.0201343E-1,4.8566785E-1,3.575912E-1,3.852491E-1,1.5532521E0,-6.456486E-1,-1.3455953E-1,1.3792953E-2,-5.543083E-1,3.4998515E-1,-6.5781504E-2,-1.536792E-1,2.8398624E-1,3.0417383E-1,1.0788566E0],"split_indices":[6,3,6,6,6,2,5,0,3,2,2,0,3,3,0,0,0,0,0,0,0,0,0,0,0],"split_type":[0,0,0,0,0,0,0,0,0,0,0,0,0,0,0,0,0,0,0,0,0,0,0,0,0],"sum_hessian":[1.04E2,6.4E1,4E1,4.7E1,1.7E1,9E0,3.1E1,2E1,2.7E1,9E0,8E0,5E0,4E0,1.9E1,1.2E1,2.2E1,5E0,1E0,8E0,6E0,2E0,3E0,1E0,3E0,1.6E1],"tree_param":{"num_deleted":"0","num_feature":"7","num_nodes":"25","size_leaf_vector":"1"}},{"base_weights":[1.1624873E0,-1.3341107E1,1.867701E1,-1.6923864E1,-4.21591E0,8.853102E0,2.3620062E1,-1.7300484E1,-8.164068E-2,-5.5120416E0,1.0254952E0,3.2935865E0,5.535824E-1,8.739452E-1,1.327985E0,-9.448552E-1,-6.262075E-1,-1.3016154E-1,-3.8095662E-1,-0E0,6.771835E-2,4.2734757E-2,2.1371792E-1],"categories":[],"categories_nodes":[],"categories_segments":[],"categories_sizes":[],"default_left":[0,0,0,0,0,0,0,0,0,0,0,0,0,0,0,0,0,0,0,0,0,0,0],"id":11,"left_children":[1,3,5,7,9,11,13,15,-1,17,19,21,-1,-1,-1,-1,-1,-1,-1,-1,-1,-1,-1],"loss_changes":[2.4127916E4,1.6265918E3,1.8757256E3,1.829375E2,1.14798065E2,1.5944263E2,3.6839844E1,3.4722656E1,0E0,5.8822083E1,1.2963691E0,1.0185799E1,0E0,0E0,0E0,0E0,0E0,0E0,0E0,0E0,0E0,0E0,0E0],"parents":[2147483647,0,0,1,1,2,2,3,3,4,4,5,5,6,6,7,7,9,9,10,10,11,11],"right_children":[2,4,6,8,10,12,14,16,-1,18,20,22,-1,-1,-1,-1,-1,-1,-1,-1,-1,-1,-1],"split_conditions":[5.326195E-1,3.070906E-1,3.3687004E-1,1.9321515E-1,6.0427326E-1,4.854042E-1,7.541737E-1,6.794858E-2,-8.164068E-2,3.5318577E-1,3.7269518E-1,4.2588584E-2,5.535824E-1,8.739452E-1,1.327985E0,-9.448552E-1,-6.262075E-1,-1.3016154E-1,-3.8095662E-1,-0E0,6.771835E-2,4.2734757E-2,2.1371792E-1],"split_indices":[1,0,6,6,0,0,1,6,0,0,3,6,0,0,0,0,0,0,0,0,0,0,0],"split_type":[0,0,0,0,0,0,0,0,0,0,0,0,0,0,0,0,0,0,0,0,0,0,0],"sum_hessian":[9.3E1,5.1E1,4.2E1,3.6E1,1.5E1,1.5E1,2.7E1,3.5E1,1E0,1.2E1,3E0,5E0,1E1,1.1E1,1.6E1,2.4E1,1.1E1,6E0,6E0,1E0,2E0,2E0,3E0],"tree_param":{"num_deleted":"0","num_feature":"7","num_nodes":"23","size_leaf_vector":"1"}},{"base_weights":[5.3012925E-1,-1.2976937E1,1.852931E1,-1.6633171E1,-7.003507E0,7.0793347E0,2.3997892E1,-1.7732325E1,-1.9657186E-1,-1.0302915E1,-1.6739867E0,4.131022E-2,7.9701085E0,8.536307E-1,1.3445618E0,-9.0731585E-1,-1.3031384E-1,-5.674344E-1,-1.326093E-1,-1.4861722E-1,4.9581796E-2,2.4998716E-1,4.893801E-1],"categories":[],"categories_nodes":[],"categories_segments":[],"categories_sizes":[],"default_left":[0,0,0,0,0,0,0,0,0,0,0,0,0,0,0,0,0,0,0,0,0,0,0],"id":12,"left_children":[1,3,5,7,9,11,13,15,-1,17,19,-1,21,-1,-1,-1,-1,-1,-1,-1,-1,-1,-1],"loss_changes":[2.3823273E4,1.1042002E3,2.4568389E3,4.027998E2,3.859933E2,7.608728E1,9.754199E1,1.4475488E2,0E0,8.051404E1,3.7754868E1,0E0,1.9767822E1,0E0,0E0,0E0,0E0,0E0,0E0,0E0,0E0,0E0,0E0],"parents":[2147483647,0,0,1,1,2,2,3,3,4,4,5,5,6,6,7,7,9,9,10,10,12,12],"right_children":[2,4,6,8,10,12,14,16,-1,18,20,-1,22,-1,-1,-1,-1,-1,-1,-1,-1,-1,-1],"split_conditions":[4.526783E-1,6.883573E-2,3.3687004E-1,2.4071755E-1,3.3719105E-1,9.3959734E-2,7.776827E-1,6.577181E-1,-1.9657186E-1,2.2706269E-1,2.679855E-1,4.131022E-2,1.5007901E-1,8.536307E-1,1.3445618E0,-9.0731585E-1,-1.3031384E-1,-5.674344E-1,-1.326093E-1,-1.4861722E-1,4.9581796E-2,2.4998716E-1,4.893801E-1],"split_indices":[1,6,6,1,3,2,1,2,0,6,6,0,6,0,0,0,0,0,0,0,0,0,0],"split_type":[0,0,0,0,0,0,0,0,0,0,0,0,0,0,0,0,0,0,0,0,0,0,0],"sum_hessian":[9.6E1,5.5E1,4.1E1,3.3E1,2.2E1,1.4E1,2.7E1,3E1,3E0,1.3E1,9E0,2E0,1.2E1,1E1,1.7E1,2.9E1,1E0,1.1E1,2E0,6E0,3E0,6E0,6E0],"tree_param":{"num_deleted":"0","num_feature":"7","num_nodes":"23","size_leaf_vector":"1"}},{"base_weights":[8.4689516E-1,-1.1312935E1,1.694837E1,-1.4712477E1,-5.23128E0,7.149561E0,2.248657E1,-1.57969675E1,-6.6405234E0,-8.192595E0,-2.5432472E0,1.3669916E0,8.283897E0,8.2044935E-1,1.3124019E0,-8.010163E-1,-2.2490649E-1,-3.670777E-1,-7.5884216E-2,-4.8913833E-1,-1.6683221E-1,-3.2539928E-1,-6.108299E-2,1.134697E-2,8.190146E-2,6.5078795E-2,4.3565932E-1],"categories":[],"categories_nodes":[],"categories_segments":[],"categories_sizes":[],"default_left":[0,0,0,0,0,0,0,0,0,0,0,0,0,0,0,0,0,0,0,0,0,0,0,0,0,0,0],"id":13,"left_children":[1,3,5,7,9,11,13,15,17,19,21,23,25,-1,-1,-1,-1,-1,-1,-1,-1,-1,-1,-1,-1,-1,-1],"loss_changes":[1.9575629E4,1.0995059E3,2.1697812E3,2.0799854E2,1.5321307E2,9.92204E1,1.8226758E2,4.1206055E0,9.519501E0,4.3264404E1,5.9393227E1,6.7775774E-1,2.9621643E1,0E0,0E0,0E0,0E0,0E0,0E0,0E0,0E0,0E0,0E0,0E0,0E0,0E0,0E0],"parents":[2147483647,0,0,1,1,2,2,3,3,4,4,5,5,6,6,7,7,8,8,9,9,10,10,11,11,12,12],"right_children":[2,4,6,8,10,12,14,16,18,20,22,24,26,-1,-1,-1,-1,-1,-1,-1,-1,-1,-1,-1,-1,-1,-1],"split_conditions":[4.526783E-1,2.965671E-1,3.3687004E-1,6.6442955E-1,2.869753E-1,1.6778524E-1,7.792204E-1,1.4378351E-1,2.6202714E-1,2.2706269E-1,4.6979867E-2,4.607372E-1,4.6582642E-1,8.2044935E-1,1.3124019E0,-8.010163E-1,-2.2490649E-1,-3.670777E-1,-7.5884216E-2,-4.8913833E-1,-1.6683221E-1,-3.2539928E-1,-6.108299E-2,1.134697E-2,8.190146E-2,6.5078795E-2,4.3565932E-1],"split_indices":[1,0,6,2,3,2,1,6,0,6,2,0,0,0,0,0,0,0,0,0,0,0,0,0,0,0,0],"split_type":[0,0,0,0,0,0,0,0,0,0,0,0,0,0,0,0,0,0,0,0,0,0,0,0,0,0,0],"sum_hessian":[9.8E1,5.6E1,4.2E1,3.5E1,2.1E1,1.6E1,2.6E1,3E1,5E0,9E0,1.2E1,3E0,1.3E1,1.2E1,1.4E1,2.9E1,1E0,4E0,1E0,6E0,3E0,2E0,1E1,1E0,2E0,1E0,1.2E1],"tree_param":{"num_deleted":"0","num_feature":"7","num_nodes":"27","size_leaf_vector":"1"}},{"base_weights":[-1.1535458E-1,-1.1784529E1,1.6833097E1,-1.5953063E1,-6.631212E0,8.288033E0,2.1269686E1,-9.379048E-1,-1.1329819E1,-5.923577E-1,-4.75109E0,4.5761385E0,5.023778E-1,8.5611576E-1,1.2868282E0,-1.1787907E-1,-5.897576E-1,-2.698232E-1,6.584445E-2,6.345183E-2,2.4495748E-1],"categories":[],"categories_nodes":[],"categories_segments":[],"categories_sizes":[],"default_left":[0,0,0,0,0,0,0,0,0,0,0,0,0,0,0,0,0,0,0,0,0],"id":14,"left_children":[1,3,5,7,9,11,13,-1,15,-1,17,19,-1,-1,-1,-1,-1,-1,-1,-1,-1],"loss_changes":[2.0370857E4,1.2023408E3,1.4130195E3,2.124209E2,2.2644482E2,5.705725E1,5.524121E1,0E0,3.3402832E1,0E0,9.7585144E1,6.4360046E-1,0E0,0E0,0E0,0E0,0E0,0E0,0E0,0E0,0E0],"parents":[2147483647,0,0,1,1,2,2,3,3,4,4,5,5,6,6,8,8,10,10,11,11],"right_children":[2,4,6,8,10,12,14,-1,16,-1,18,20,-1,-1,-1,-1,-1,-1,-1,-1,-1],"split_conditions":[5.326195E-1,2.5974882E-1,3.7613854E-1,4.135203E-2,1.3961485E-1,1.5007901E-1,7.354857E-1,-9.379048E-1,8.489854E-2,-5.923577E-1,6.0427326E-1,6.300342E-1,5.023778E-1,8.5611576E-1,1.2868282E0,-1.1787907E-1,-5.897576E-1,-2.698232E-1,6.584445E-2,6.345183E-2,2.4495748E-1],"split_indices":[1,0,6,6,4,6,0,0,0,0,0,1,0,0,0,0,0,0,0,0,0],"split_type":[0,0,0,0,0,0,0,0,0,0,0,0,0,0,0,0,0,0,0,0,0],"sum_hessian":[1.01E2,6E1,4.1E1,3.2E1,2.8E1,1.5E1,2.6E1,1.8E1,1.4E1,6E0,2.2E1,6E0,9E0,1.6E1,1E1,1E0,1.3E1,2E1,2E0,1E0,5E0],"tree_param":{"num_deleted":"0","num_feature":"7","num_nodes":"21","size_leaf_vector":"1"}},{"base_weights":[-9.7181976E-1,-1.1214513E1,1.4808524E1,-1.2820078E1,-1.8946841E0,7.5919123E0,2.0035366E1,-1.4727505E1,-2.2712493E0,-2.5975692E0,5.779045E-1,5.1128645E0,1.1681198E1,7.319827E-1,1.1651744E0,-8.70066E-1,-5.3887767E-1,4.754389E-2,-2.0287295E-1,-1.5949236E-1,3.6209356E-2,-7.813072E-4,4.6624146E-2,3.0213838E-2,2.9342914E-1,2.1368055E-1,7.1457946E-1],"categories":[],"categories_nodes":[],"categories_segments":[],"categories_sizes":[],"default_left":[0,0,0,0,0,0,0,0,0,0,0,0,0,0,0,0,0,0,0,0,0,0,0,0,0,0,0],"id":15,"left_children":[1,3,5,7,9,11,13,15,17,19,21,23,25,-1,-1,-1,-1,-1,-1,-1,-1,-1,-1,-1,-1,-1,-1],"loss_changes":[1.6005768E4,8.720532E2,1.3162139E3,9.910283E2,1.9082573E1,1.210719E2,4.299414E1,2.6378027E2,5.596736E1,1.8295837E1,7.376163E-1,4.0100372E1,5.3086914E1,0E0,0E0,0E0,0E0,0E0,0E0,0E0,0E0,0E0,0E0,0E0,0E0,0E0,0E0],"parents":[2147483647,0,0,1,1,2,2,3,3,4,4,5,5,6,6,7,7,8,8,9,9,10,10,11,11,12,12],"right_children":[2,4,6,8,10,12,14,16,18,20,22,24,26,-1,-1,-1,-1,-1,-1,-1,-1,-1,-1,-1,-1,-1,-1],"split_conditions":[5.326195E-1,2.4071755E-1,6.0402685E-1,6.8456376E-1,3.2255846E-1,7.1450084E-1,7.776827E-1,3.8255033E-1,8.389262E-1,9.5566887E-1,2.8323987E-1,9.3959734E-2,2.2147651E-1,7.319827E-1,1.1651744E0,-8.70066E-1,-5.3887767E-1,4.754389E-2,-2.0287295E-1,-1.5949236E-1,3.6209356E-2,-7.813072E-4,4.6624146E-2,3.0213838E-2,2.9342914E-1,2.1368055E-1,7.1457946E-1],"split_indices":[1,1,2,2,4,1,1,2,2,3,1,2,2,0,0,0,0,0,0,0,0,0,0,0,0,0,0],"split_type":[0,0,0,0,0,0,0,0,0,0,0,0,0,0,0,0,0,0,0,0,0,0,0,0,0,0,0],"sum_hessian":[9.7E1,5.9E1,3.8E1,5E1,9E0,1.7E1,2.1E1,4.2E1,8E0,7E0,2E0,1.2E1,5E0,1E1,1.1E1,2.3E1,1.9E1,3E0,5E0,6E0,1E0,1E0,1E0,2E0,1E1,2E0,3E0],"tree_param":{"num_deleted":"0","num_feature":"7","num_nodes":"27","size_leaf_vector":"1"}},{"base_weights":[5.8542204E-1,-1.0851841E1,1.2774383E1,-1.3712645E1,-5.758371E0,4.0751977E0,1.69848E1,-7.4066675E-1,-5.226524E0,-8.7610445E0,-1.437506E0,-2.4010377E-1,5.6935277E0,1.1837667E1,1.0109314E0,-2.9432294E-1,-6.216961E-2,-4.9714956E-1,-1.13076285E-1,-1.3644396E-1,-1.601698E-2,4.1840174E-3,3.0554625E-1,7.3621124E-1,4.5761045E-2],"categories":[],"categories_nodes":[],"categories_segments":[],"categories_sizes":[],"default_left":[0,0,0,0,0,0,0,0,0,0,0,0,0,0,0,0,0,0,0,0,0,0,0,0,0],"id":16,"left_children":[1,3,5,7,9,11,13,-1,15,17,19,-1,21,23,-1,-1,-1,-1,-1,-1,-1,-1,-1,-1,-1],"loss_changes":[1.2964386E4,6.1851904E2,1.5769019E3,2.0079102E2,2.3289496E2,2.5729166E2,2.5680176E2,0E0,5.1108704E0,6.0796143E1,1.1805019E1,0E0,3.1650696E1,4.2635583E2,0E0,0E0,0E0,0E0,0E0,0E0,0E0,0E0,0E0,0E0,0E0],"parents":[2147483647,0,0,1,1,2,2,3,3,4,4,5,5,6,6,8,8,9,9,10,10,12,12,13,13],"right_children":[2,4,6,8,10,12,14,-1,16,18,20,-1,22,24,-1,-1,-1,-1,-1,-1,-1,-1,-1,-1,-1],"split_conditions":[4.2609283E-1,2.965671E-1,3.4649685E-1,6.6442955E-1,5.192232E-1,2.7128285E-1,5.301126E-1,-7.4066675E-1,1.789591E-1,6.107383E-1,1.2080537E-1,-2.4010377E-1,6.7114094E-3,5.1111877E-1,1.0109314E0,-2.9432294E-1,-6.216961E-2,-4.9714956E-1,-1.13076285E-1,-1.3644396E-1,-1.601698E-2,4.1840174E-3,3.0554625E-1,7.3621124E-1,4.5761045E-2],"split_indices":[0,0,6,2,3,3,6,0,0,2,2,0,2,6,0,0,0,0,0,0,0,0,0,0,0],"split_type":[0,0,0,0,0,0,0,0,0,0,0,0,0,0,0,0,0,0,0,0,0,0,0,0,0],"sum_hessian":[9.1E1,4.7E1,4.4E1,2.9E1,1.8E1,1.5E1,2.9E1,2.5E1,4E0,1E1,8E0,2E0,1.3E1,1.3E1,1.6E1,3E0,1E0,8E0,2E0,3E0,5E0,1E0,1.2E1,1E1,3E0],"tree_param":{"num_deleted":"0","num_feature":"7","num_nodes":"25","size_leaf_vector":"1"}},{"base_weights":[-3.7729135E-1,-9.381649E0,1.5137917E1,-1.2217454E1,-4.588683E-1,1.0030403E1,9.8413146E-1,-7.5330395E-1,-9.104023E0,-4.9397316E0,9.4746417E-1,1.5654569E0,1.2176692E1,-5.0316566E-1,-7.634605E-2,-4.1394766E-2,-3.0005226E-1,-1.18783526E-1,1.666941E-1,2.0005587E-1,-6.793445E-2,6.4446896E-1,5.2476753E-2],"categories":[],"categories_nodes":[],"categories_segments":[],"categories_sizes":[],"default_left":[0,0,0,0,0,0,0,0,0,0,0,0,0,0,0,0,0,0,0,0,0,0,0],"id":17,"left_children":[1,3,5,7,9,11,-1,-1,13,15,17,19,21,-1,-1,-1,-1,-1,-1,-1,-1,-1,-1],"loss_changes":[1.3692778E4,1.5619287E3,6.352422E2,2.7726367E2,1.0590478E2,3.247599E2,0E0,0E0,1.6519116E2,1.1804657E1,1.1111107E2,4.1311646E1,1.04031006E2,0E0,0E0,0E0,0E0,0E0,0E0,0E0,0E0,0E0,0E0],"parents":[2147483647,0,0,1,1,2,2,3,3,4,4,5,5,8,8,9,9,10,10,11,11,12,12],"right_children":[2,4,6,8,10,12,-1,-1,14,16,18,20,22,-1,-1,-1,-1,-1,-1,-1,-1,-1,-1],"split_conditions":[5.369894E-1,3.3634672E-1,5.301126E-1,4.135203E-2,2.869753E-1,3.7269518E-1,9.8413146E-1,-7.5330395E-1,4.68419E-1,3.401397E-1,4.2609283E-1,5.975433E-1,5.1111877E-1,-5.0316566E-1,-7.634605E-2,-4.1394766E-2,-3.0005226E-1,-1.18783526E-1,1.666941E-1,2.0005587E-1,-6.793445E-2,6.4446896E-1,5.2476753E-2],"split_indices":[0,0,6,6,3,3,0,0,3,0,0,0,6,0,0,0,0,0,0,0,0,0,0],"split_type":[0,0,0,0,0,0,0,0,0,0,0,0,0,0,0,0,0,0,0,0,0,0,0],"sum_hessian":[9.6E1,6.1E1,3.5E1,4.6E1,1.5E1,1.8E1,1.7E1,2.2E1,2.4E1,3E0,1.2E1,4E0,1.4E1,2.1E1,3E0,1E0,2E0,5E0,7E0,2E0,2E0,1.3E1,1E0],"tree_param":{"num_deleted":"0","num_feature":"7","num_nodes":"23","size_leaf_vector":"1"}},{"base_weights":[-3.4733634E-2,-1.0040619E1,1.3386204E1,-1.280038E1,-4.132632E0,6.657943E0,1.6624638E1,-1.3431845E1,-4.2078295E0,-4.9556905E-1,-2.8638742E0,3.697619E-1,3.79461E-1,6.4858395E-1,9.77654E-1,-6.9054586E-1,-2.4388991E-1,-2.4683113E-1,-4.803625E-2,-1.743776E-1,5.8790307E-2,-0E0,2.532011E-2],"categories":[],"categories_nodes":[],"categories_segments":[],"categories_sizes":[],"default_left":[0,0,0,0,0,0,0,0,0,0,0,0,0,0,0,0,0,0,0,0,0,0,0],"id":18,"left_children":[1,3,5,7,9,11,13,15,17,-1,19,21,-1,-1,-1,-1,-1,-1,-1,-1,-1,-1,-1],"loss_changes":[1.2891466E4,8.421621E2,7.8033594E2,1.424751E2,1.09642365E2,8.4238464E1,3.194336E1,4.1013184E1,4.1334E0,0E0,4.7162674E1,1.0271478E-1,0E0,0E0,0E0,0E0,0E0,0E0,0E0,0E0,0E0,0E0,0E0],"parents":[2147483647,0,0,1,1,2,2,3,3,4,4,5,5,6,6,7,7,8,8,10,10,11,11],"right_children":[2,4,6,8,10,12,14,16,18,-1,20,22,-1,-1,-1,-1,-1,-1,-1,-1,-1,-1,-1],"split_conditions":[5.326195E-1,2.965671E-1,3.3687004E-1,1.4378351E-1,1.3961485E-1,4.2588584E-2,7.792204E-1,2.4136133E-3,1.9321515E-1,-4.9556905E-1,5.0727427E-1,4.607372E-1,3.79461E-1,6.4858395E-1,9.77654E-1,-6.9054586E-1,-2.4388991E-1,-2.4683113E-1,-4.803625E-2,-1.743776E-1,5.8790307E-2,-0E0,2.532011E-2],"split_indices":[1,0,6,6,4,6,1,1,6,0,0,0,0,0,0,0,0,0,0,0,0,0,0],"split_type":[0,0,0,0,0,0,0,0,0,0,0,0,0,0,0,0,0,0,0,0,0,0,0],"sum_hessian":[9.4E1,5.4E1,4E1,3.6E1,1.8E1,1.4E1,2.6E1,3.3E1,3E0,2E0,1.6E1,2E0,1.2E1,1.4E1,1.2E1,3.1E1,2E0,2E0,1E0,1.4E1,2E0,1E0,1E0],"tree_param":{"num_deleted":"0","num_feature":"7","num_nodes":"23","size_leaf_vector":"1"}},{"base_weights":[1.811666E0,-9.657907E0,1.3006629E1,-1.0542878E1,-1.8367822E0,6.915238E0,1.7484554E1,-1.1396567E1,-1.9262658E0,9.0681075E-4,-1.1156966E-1,2.9880826E0,9.930527E0,2.5046214E-1,9.139105E-1,-6.421907E-1,-3.808862E-1,-1.191463E-1,-0E0,1.8066064E-2,1.7602748E-1,1.9829805E-1,5.358422E-1],"categories":[],"categories_nodes":[],"categories_segments":[],"categories_sizes":[],"default_left":[0,0,0,0,0,0,0,0,0,0,0,0,0,0,0,0,0,0,0,0,0,0,0],"id":19,"left_children":[1,3,5,7,9,11,13,15,17,-1,-1,19,21,-1,-1,-1,-1,-1,-1,-1,-1,-1,-1],"loss_changes":[1.2195687E4,3.0470654E2,1.1859355E3,2.856631E2,4.6536217E0,2.2954797E2,1.734414E2,1.0793213E2,4.1608467E0,0E0,0E0,1.3725075E1,1.2309692E1,0E0,0E0,0E0,0E0,0E0,0E0,0E0,0E0,0E0,0E0],"parents":[2147483647,0,0,1,1,2,2,3,3,4,4,5,5,6,6,7,7,8,8,11,11,12,12],"right_children":[2,4,6,8,10,12,14,16,18,-1,-1,20,22,-1,-1,-1,-1,-1,-1,-1,-1,-1,-1],"split_conditions":[4.02435E-1,2.4071755E-1,7.4925846E-1,6.577181E-1,3.0405506E-1,5.3691274E-1,2.5503355E-1,3.7001374E-1,3.0865982E-1,9.0681075E-4,-1.1156966E-1,9.3959734E-2,9.559835E-2,2.5046214E-1,9.139105E-1,-6.421907E-1,-3.808862E-1,-1.191463E-1,-0E0,1.8066064E-2,1.7602748E-1,1.9829805E-1,5.358422E-1],"split_indices":[1,1,1,2,0,2,2,4,0,0,0,2,4,0,0,0,0,0,0,0,0,0,0],"split_type":[0,0,0,0,0,0,0,0,0,0,0,0,0,0,0,0,0,0,0,0,0,0,0],"sum_hessian":[9.3E1,4.6E1,4.7E1,4.1E1,5E0,2.1E1,2.6E1,3.7E1,4E0,1E0,4E0,1E1,1.1E1,2E0,2.4E1,2.5E1,1.2E1,3E0,1E0,2E0,8E0,2E0,9E0],"tree_param":{"num_deleted":"0","num_feature":"7","num_nodes":"23","size_leaf_vector":"1"}},{"base_weights":[6.1798587E-2,-8.674365E0,1.284736E1,-1.0139535E1,-1.9603881E0,6.046505E0,1.614608E1,-1.0733107E1,-7.5358546E-1,-1.7439647E-1,1.3180803E-1,2.7151995E0,7.9545755E0,6.322128E-1,1.0040537E0,-6.4274514E-1,-4.1241693E-1,8.841133E-4,-5.2495103E-2,-1.1177131E-1,5.3617008E-2,2.4235401E-2,1.4947484E-1,1.8774621E-1,4.705957E-1],"categories":[],"categories_nodes":[],"categories_segments":[],"categories_sizes":[],"default_left":[0,0,0,0,0,0,0,0,0,0,0,0,0,0,0,0,0,0,0,0,0,0,0,0,0],"id":20,"left_children":[1,3,5,7,9,11,13,15,17,-1,19,21,23,-1,-1,-1,-1,-1,-1,-1,-1,-1,-1,-1,-1],"loss_changes":[1.1281535E4,5.6914014E2,8.1995215E2,2.6375293E2,3.9146336E1,7.268024E1,1.14867676E2,1.3437793E2,1.0359445E0,0E0,1.56395855E1,2.486271E0,1.842511E1,0E0,0E0,0E0,0E0,0E0,0E0,0E0,0E0,0E0,0E0,0E0,0E0],"parents":[2147483647,0,0,1,1,2,2,3,3,4,4,5,5,6,6,7,7,8,8,10,10,11,11,12,12],"right_children":[2,4,6,8,10,12,14,16,18,-1,20,22,24,-1,-1,-1,-1,-1,-1,-1,-1,-1,-1,-1,-1],"split_conditions":[5.326195E-1,3.3634672E-1,3.3687004E-1,2.7018368E-1,2.2145805E-1,1.5007901E-1,7.354857E-1,4.135203E-2,3.0405506E-1,-1.7439647E-1,7.2834427E-3,4.2588584E-2,5.6344104E-1,6.322128E-1,1.0040537E0,-6.4274514E-1,-4.1241693E-1,8.841133E-4,-5.2495103E-2,-1.1177131E-1,5.3617008E-2,2.4235401E-2,1.4947484E-1,1.8774621E-1,4.705957E-1],"split_indices":[1,0,6,1,4,6,0,6,0,0,6,6,1,0,0,0,0,0,0,0,0,0,0,0,0],"split_type":[0,0,0,0,0,0,0,0,0,0,0,0,0,0,0,0,0,0,0,0,0,0,0,0,0],"sum_hessian":[9.9E1,5.9E1,4E1,4.8E1,1.1E1,1.4E1,2.6E1,4.5E1,3E0,6E0,5E0,6E0,8E0,1.6E1,1E1,2.2E1,2.3E1,1E0,2E0,1E0,4E0,1E0,5E0,3E0,5E0],"tree_param":{"num_deleted":"0","num_feature":"7","num_nodes":"25","size_leaf_vector":"1"}},{"base_weights":[2.503948E-1,-9.21604E0,1.1004289E1,-1.1339187E1,-4.8060474E0,5.011585E0,1.4956485E1,-1.236776E1,-4.6326466E0,-6.4306836E0,-4.683282E-1,2.4041057E0,7.630551E0,5.3468335E-1,8.6814874E-1,-6.3591784E-1,-7.004086E-2,-2.6129517E-1,-3.915907E-2,-3.5801673E-1,-7.892009E-2,-5.0314315E-2,1.8586261E-2,1.6656024E-2,1.4081E-1,1.8070567E-1,4.5098755E-1],"categories":[],"categories_nodes":[],"categories_segments":[],"categories_sizes":[],"default_left":[0,0,0,0,0,0,0,0,0,0,0,0,0,0,0,0,0,0,0,0,0,0,0,0,0,0,0],"id":21,"left_children":[1,3,5,7,9,11,13,15,17,19,21,23,25,-1,-1,-1,-1,-1,-1,-1,-1,-1,-1,-1,-1,-1,-1],"loss_changes":[9.569091E3,4.12042E2,9.651577E2,1.6864404E2,1.23148315E2,1.1040094E2,7.8239746E1,8.843164E1,9.008591E0,3.3850403E1,3.1489987E0,8.1347885E0,1.635492E1,0E0,0E0,0E0,0E0,0E0,0E0,0E0,0E0,0E0,0E0,0E0,0E0,0E0,0E0],"parents":[2147483647,0,0,1,1,2,2,3,3,4,4,5,5,6,6,7,7,8,8,9,9,10,10,11,11,12,12],"right_children":[2,4,6,8,10,12,14,16,18,20,22,24,26,-1,-1,-1,-1,-1,-1,-1,-1,-1,-1,-1,-1,-1,-1],"split_conditions":[4.02435E-1,6.883573E-2,3.3687004E-1,2.4136133E-3,3.3719105E-1,1.5007901E-1,7.792204E-1,6.577181E-1,2.7018368E-1,2.2346252E-1,2.679855E-1,9.3959734E-2,5.6344104E-1,5.3468335E-1,8.6814874E-1,-6.3591784E-1,-7.004086E-2,-2.6129517E-1,-3.915907E-2,-3.5801673E-1,-7.892009E-2,-5.0314315E-2,1.8586261E-2,1.6656024E-2,1.4081E-1,1.8070567E-1,4.5098755E-1],"split_indices":[1,6,6,1,3,6,1,2,1,6,6,2,1,0,0,0,0,0,0,0,0,0,0,0,0,0,0],"split_type":[0,0,0,0,0,0,0,0,0,0,0,0,0,0,0,0,0,0,0,0,0,0,0,0,0,0,0],"sum_hessian":[9.2E1,4.9E1,4.3E1,3.2E1,1.7E1,1.8E1,2.5E1,2.7E1,5E0,1.2E1,5E0,1E1,8E0,1.1E1,1.4E1,2.6E1,1E0,4E0,1E0,1E1,2E0,3E0,2E0,2E0,8E0,3E0,5E0],"tree_param":{"num_deleted":"0","num_feature":"7","num_nodes":"27","size_leaf_vector":"1"}},{"base_weights":[1.7275994E-1,-7.0243244E0,1.1913457E1,-9.631576E0,-1.062519E0,8.82071E0,8.935508E-1,-6.2628293E-1,-7.042809E0,3.161036E-1,-3.1824656E0,7.0675583E0,6.04425E-1,-3.7827405E-1,-1.19120575E-1,5.3784788E-2,-2.1747504E-1,1.2469202E-1,-2.1819575E-1,1.8820135E-1,4.2745748E-1],"categories":[],"categories_nodes":[],"categories_segments":[],"categories_sizes":[],"default_left":[0,0,0,0,0,0,0,0,0,0,0,0,0,0,0,0,0,0,0,0,0],"id":22,"left_children":[1,3,5,7,9,11,-1,-1,13,15,17,19,-1,-1,-1,-1,-1,-1,-1,-1,-1],"loss_changes":[8.449552E3,9.524199E2,5.39854E2,2.319878E2,5.974475E1,6.732959E1,0E0,0E0,4.1877563E1,5.042279E1,6.472007E1,6.4479065E1,0E0,0E0,0E0,0E0,0E0,0E0,0E0,0E0,0E0],"parents":[2147483647,0,0,1,1,2,2,3,3,4,4,5,5,8,8,9,9,10,10,11,11],"right_children":[2,4,6,8,10,12,-1,-1,14,16,18,20,-1,-1,-1,-1,-1,-1,-1,-1,-1],"split_conditions":[5.369894E-1,3.1991732E-1,5.7371885E-1,2.818792E-1,3.2214764E-1,3.7207702E-1,8.935508E-1,-6.2628293E-1,3.070906E-1,4.4429162E-1,9.559835E-2,6.7114097E-1,6.04425E-1,-3.7827405E-1,-1.19120575E-1,5.3784788E-2,-2.1747504E-1,1.2469202E-1,-2.1819575E-1,1.8820135E-1,4.2745748E-1],"split_indices":[0,0,6,2,2,4,0,0,0,4,4,2,0,0,0,0,0,0,0,0,0],"split_type":[0,0,0,0,0,0,0,0,0,0,0,0,0,0,0,0,0,0,0,0,0],"sum_hessian":[9.8E1,6.1E1,3.7E1,4.2E1,1.9E1,2.6E1,1.1E1,1.8E1,2.4E1,1.2E1,7E0,1.9E1,7E0,2.1E1,3E0,1.1E1,1E0,1E0,6E0,7E0,1.2E1],"tree_param":{"num_deleted":"0","num_feature":"7","num_nodes":"21","size_leaf_vector":"1"}},{"base_weights":[-2.7598722E-2,-6.2687826E0,1.1065828E1,-9.378534E0,-1.3592011E0,6.393874E0,1.5377011E1,-6.3739115E-1,-7.1997433E0,-5.8256874E0,1.3422143E0,8.7100464E-1,9.534631E0,5.5908734E-1,9.159374E-1,-4.7385278E-1,-2.445622E-1,-1.5542068E-1,-4.5497474E-1,1.5215847E-1,-1.6643558E-1,1.671574E-1,-6.304555E-2,5.1587814E-1,2.0559369E-2],"categories":[],"categories_nodes":[],"categories_segments":[],"categories_sizes":[],"default_left":[0,0,0,0,0,0,0,0,0,0,0,0,0,0,0,0,0,0,0,0,0,0,0,0,0],"id":23,"left_children":[1,3,5,7,9,11,13,-1,15,17,19,21,23,-1,-1,-1,-1,-1,-1,-1,-1,-1,-1,-1,-1],"loss_changes":[6.9232646E3,9.6330444E2,6.24604E2,1.9252197E2,3.2197937E2,3.2022858E2,1.4358887E1,0E0,8.889502E1,5.9452545E1,1.4516687E2,4.658684E1,8.040112E1,0E0,0E0,0E0,0E0,0E0,0E0,0E0,0E0,0E0,0E0,0E0,0E0],"parents":[2147483647,0,0,1,1,2,2,3,3,4,4,5,5,6,6,8,8,9,9,10,10,11,11,12,12],"right_children":[2,4,6,8,10,12,14,-1,16,18,20,22,24,-1,-1,-1,-1,-1,-1,-1,-1,-1,-1,-1,-1],"split_conditions":[2.2706269E-1,4.2389172E-1,5.291427E-1,4.135203E-2,3.7146166E-2,3.7269518E-1,4E-1,-6.3739115E-1,2.5637504E-1,1.2751678E-1,3.0872482E-1,5.771812E-1,5.0572735E-1,5.5908734E-1,9.159374E-1,-4.7385278E-1,-2.445622E-1,-1.5542068E-1,-4.5497474E-1,1.5215847E-1,-1.6643558E-1,1.671574E-1,-6.304555E-2,5.1587814E-1,2.0559369E-2],"split_indices":[6,3,6,6,6,3,5,0,3,2,2,2,6,0,0,0,0,0,0,0,0,0,0,0,0],"split_type":[0,0,0,0,0,0,0,0,0,0,0,0,0,0,0,0,0,0,0,0,0,0,0,0,0],"sum_hessian":[9.8E1,6.3E1,3.5E1,3.8E1,2.5E1,1.8E1,1.7E1,1.3E1,2.5E1,9E0,1.6E1,7E0,1.1E1,9E0,8E0,1.1E1,1.4E1,6E0,3E0,1.2E1,4E0,3E0,4E0,1E1,1E0],"tree_param":{"num_deleted":"0","num_feature":"7","num_nodes":"25","size_leaf_vector":"1"}},{"base_weights":[8.255845E-1,-7.6153307E0,1.0168217E1,-9.345375E0,-2.833532E0,4.705801E0,1.38341465E1,-1.1776344E1,-7.148062E0,-3.6581347E0,3.236595E-1,2.3656702E0,6.3963017E0,5.387988E-1,8.6468345E-1,-6.3288E-1,-1.8525188E-1,-3.721599E-1,-2.1255454E-2,-1.9392793E-1,-2.8336868E-2,-1.0905895E-2,3.0514566E-2,3.1275723E-2,1.35501E-1,1.6818927E-1,3.8171712E-1],"categories":[],"categories_nodes":[],"categories_segments":[],"categories_sizes":[],"default_left":[0,0,0,0,0,0,0,0,0,0,0,0,0,0,0,0,0,0,0,0,0,0,0,0,0,0,0],"id":24,"left_children":[1,3,5,7,9,11,13,15,17,19,21,23,25,-1,-1,-1,-1,-1,-1,-1,-1,-1,-1,-1,-1,-1,-1],"loss_changes":[7.6482847E3,3.9421094E2,8.541875E2,1.1156836E2,4.056887E1,6.311212E1,9.64917E1,6.527295E1,3.970105E1,5.5343475E0,7.934953E-1,3.9635086E0,1.4518036E1,0E0,0E0,0E0,0E0,0E0,0E0,0E0,0E0,0E0,0E0,0E0,0E0,0E0,0E0],"parents":[2147483647,0,0,1,1,2,2,3,3,4,4,5,5,6,6,7,7,8,8,9,9,10,10,11,11,12,12],"right_children":[2,4,6,8,10,12,14,16,18,20,22,24,26,-1,-1,-1,-1,-1,-1,-1,-1,-1,-1,-1,-1,-1,-1],"split_conditions":[4.02435E-1,3.070906E-1,3.3687004E-1,2.8736758E-1,6.0427326E-1,1.5007901E-1,7.354857E-1,1.4533322E-1,1.9321515E-1,4.9243465E-1,3.7269518E-1,4.5017654E-1,5.797795E-1,5.387988E-1,8.6468345E-1,-6.3288E-1,-1.8525188E-1,-3.721599E-1,-2.1255454E-2,-1.9392793E-1,-2.8336868E-2,-1.0905895E-2,3.0514566E-2,3.1275723E-2,1.35501E-1,1.6818927E-1,3.8171712E-1],"split_indices":[1,0,6,3,0,6,0,6,6,4,3,3,1,0,0,0,0,0,0,0,0,0,0,0,0,0,0],"split_type":[0,0,0,0,0,0,0,0,0,0,0,0,0,0,0,0,0,0,0,0,0,0,0,0,0,0,0],"sum_hessian":[9.5E1,5E1,4.5E1,3.6E1,1.4E1,1.9E1,2.6E1,1.5E1,2.1E1,1.1E1,3E0,9E0,1E1,1.6E1,1E1,1.3E1,2E0,2E1,1E0,1E1,1E0,1E0,2E0,2E0,7E0,4E0,6E0],"tree_param":{"num_deleted":"0","num_feature":"7","num_nodes":"27","size_leaf_vector":"1"}},{"base_weights":[6.1464775E-1,-7.309663E0,9.216841E0,-1.01293E1,-3.5549018E0,6.642432E0,7.6166147E-1,-6.1920923E-1,-6.9826875E0,-5.868823E0,-1.922889E0,4.7303786E0,4.8726663E-1,-3.6862656E-1,-4.536806E-2,-4.7317314E-1,-1.737787E-1,-1.5821958E-1,-2.1426264E-2,6.7016385E-2,3.221192E-1],"categories":[],"categories_nodes":[],"categories_segments":[],"categories_sizes":[],"default_left":[0,0,0,0,0,0,0,0,0,0,0,0,0,0,0,0,0,0,0,0,0],"id":25,"left_children":[1,3,5,7,9,11,-1,-1,13,15,17,19,-1,-1,-1,-1,-1,-1,-1,-1,-1],"loss_changes":[6.543376E3,4.9197583E2,6.0910425E2,1.1025513E2,7.479175E1,1.5417224E2,0E0,0E0,2.5640442E1,4.3240967E1,2.6113537E1,1.2407379E2,0E0,0E0,0E0,0E0,0E0,0E0,0E0,0E0,0E0],"parents":[2147483647,0,0,1,1,2,2,3,3,4,4,5,5,8,8,9,9,10,10,11,11],"right_children":[2,4,6,8,10,12,-1,-1,14,16,18,20,-1,-1,-1,-1,-1,-1,-1,-1,-1],"split_conditions":[4.2609283E-1,2.5974882E-1,7.2514904E-1,3.3557048E-1,2.710867E-1,7.785235E-1,7.6166147E-1,-6.1920923E-1,4.68419E-1,4.7651008E-1,1.2751678E-1,4.5017654E-1,4.8726663E-1,-3.6862656E-1,-4.536806E-2,-4.7317314E-1,-1.737787E-1,-1.5821958E-1,-2.1426264E-2,6.7016385E-2,3.221192E-1],"split_indices":[0,0,0,2,3,2,0,0,3,2,2,3,0,0,0,0,0,0,0,0,0],"split_type":[0,0,0,0,0,0,0,0,0,0,0,0,0,0,0,0,0,0,0,0,0],"sum_hessian":[9.4E1,4.9E1,4.5E1,2.7E1,2.2E1,3.3E1,1.2E1,1.4E1,1.3E1,8E0,1.4E1,2.2E1,1.1E1,1.2E1,1E0,2E0,6E0,7E0,7E0,8E0,1.4E1],"tree_param":{"num_deleted":"0","num_feature":"7","num_nodes":"21","size_leaf_vector":"1"}},{"base_weights":[7.5793676E-2,-6.7663145E0,9.550102E0,-8.869417E0,-4.1564574E0,4.8886538E0,1.2925374E1,-5.524317E-1,-6.9183054E0,-4.1262552E-1,-2.5100157E0,1.45797E0,6.0883036E0,4.9009433E-1,7.5743455E-1,-3.8609824E-1,-2.0036629E-1,-1.882548E-1,-7.2129155E-3,8.6082454E-4,1.0745213E-1,1.366874E-1,3.405648E-1],"categories":[],"categories_nodes":[],"categories_segments":[],"categories_sizes":[],"default_left":[0,0,0,0,0,0,0,0,0,0,0,0,0,0,0,0,0,0,0,0,0,0,0],"id":26,"left_children":[1,3,5,7,9,11,13,-1,15,-1,17,19,21,-1,-1,-1,-1,-1,-1,-1,-1,-1,-1],"loss_changes":[6.0287285E3,2.5822705E2,5.486438E2,4.5070312E1,1.5355154E2,6.444995E1,1.7980957E0,0E0,9.992493E0,0E0,5.8450233E1,5.7203665E0,1.1954224E1,0E0,0E0,0E0,0E0,0E0,0E0,0E0,0E0,0E0,0E0],"parents":[2147483647,0,0,1,1,2,2,3,3,4,4,5,5,6,6,8,8,10,10,11,11,12,12],"right_children":[2,4,6,8,10,12,14,-1,16,-1,18,20,22,-1,-1,-1,-1,-1,-1,-1,-1,-1,-1],"split_conditions":[5.326195E-1,7.830408E-2,4.623299E-1,2.710867E-1,8.9642994E-2,1.5007901E-1,7.354857E-1,-5.524317E-1,2.669132E-1,-4.1262552E-1,3.3719105E-1,1.6778524E-1,5.6344104E-1,4.9009433E-1,7.5743455E-1,-3.8609824E-1,-2.0036629E-1,-1.882548E-1,-7.2129155E-3,8.6082454E-4,1.0745213E-1,1.366874E-1,3.405648E-1],"split_indices":[1,6,6,3,3,6,0,0,0,0,3,2,1,0,0,0,0,0,0,0,0,0,0],"split_type":[0,0,0,0,0,0,0,0,0,0,0,0,0,0,0,0,0,0,0,0,0,0,0],"sum_hessian":[9.1E1,5.3E1,3.8E1,2.8E1,2.5E1,1.7E1,2.1E1,1.1E1,1.7E1,6E0,1.9E1,5E0,1.2E1,1.1E1,1E1,1.2E1,5E0,1.2E1,7E0,2E0,3E0,3E0,9E0],"tree_param":{"num_deleted":"0","num_feature":"7","num_nodes":"23","size_leaf_vector":"1"}},{"base_weights":[-1.4222804E-1,-6.570095E0,9.041445E0,-7.8012943E0,-2.6904662E0,4.2786975E0,1.1525241E1,-1.0172363E1,-5.4935446E0,-3.5791008E0,-0E0,2.7328591E0,3.5564852E-1,7.7136602E0,1.299694E1,-5.592045E-1,-1.5257512E-1,-3.371059E-1,-1.9073491E-1,-2.5163156E-1,-2.5881637E-2,-2.21373E-2,2.049984E-2,1.8211275E-2,1.5800817E-1,9.850079E-2,4.0609208E-1,3.24689E-1,6.928993E-1],"categories":[],"categories_nodes":[],"categories_segments":[],"categories_sizes":[],"default_left":[0,0,0,0,0,0,0,0,0,0,0,0,0,0,0,0,0,0,0,0,0,0,0,0,0,0,0,0,0],"id":27,"left_children":[1,3,5,7,9,11,13,15,17,19,21,23,-1,25,27,-1,-1,-1,-1,-1,-1,-1,-1,-1,-1,-1,-1,-1,-1],"loss_changes":[6.02133E3,2.6455737E2,4.459536E2,1.8878369E2,3.7901833E1,4.9677948E1,4.9131348E1,1.15739746E2,2.5629272E1,5.0239136E1,1.0923641E0,1.0642067E1,0E0,6.4351196E0,8.765625E0,0E0,0E0,0E0,0E0,0E0,0E0,0E0,0E0,0E0,0E0,0E0,0E0,0E0,0E0],"parents":[2147483647,0,0,1,1,2,2,3,3,4,4,5,5,6,6,7,7,8,8,9,9,10,10,11,11,13,13,14,14],"right_children":[2,4,6,8,10,12,14,16,18,20,22,24,-1,26,28,-1,-1,-1,-1,-1,-1,-1,-1,-1,-1,-1,-1,-1,-1],"split_conditions":[5.326195E-1,3.1991732E-1,3.3687004E-1,2.885906E-1,6.107383E-1,3.363136E-1,7.776827E-1,2.4136133E-3,2.9229712E-1,2.4071755E-1,5.2016515E-1,1.6778524E-1,3.5564852E-1,6.7114097E-1,1.16231084E-1,-5.592045E-1,-1.5257512E-1,-3.371059E-1,-1.9073491E-1,-2.5163156E-1,-2.5881637E-2,-2.21373E-2,2.049984E-2,1.8211275E-2,1.5800817E-1,9.850079E-2,4.0609208E-1,3.24689E-1,6.928993E-1],"split_indices":[1,0,6,2,2,4,1,1,4,1,6,2,0,2,4,0,0,0,0,0,0,0,0,0,0,0,0,0,0],"split_type":[0,0,0,0,0,0,0,0,0,0,0,0,0,0,0,0,0,0,0,0,0,0,0,0,0,0,0,0,0],"sum_hessian":[1E2,5.9E1,4.1E1,4.4E1,1.5E1,1.5E1,2.6E1,2E1,2.4E1,1.1E1,4E0,1.1E1,4E0,9E0,1.7E1,1.7E1,3E0,1.2E1,1.2E1,7E0,4E0,2E0,2E0,2E0,9E0,1E0,8E0,3E0,1.4E1],"tree_param":{"num_deleted":"0","num_feature":"7","num_nodes":"29","size_leaf_vector":"1"}},{"base_weights":[3.7401676E-1,-6.6575565E0,7.8393545E0,-9.397564E0,-3.8702328E0,5.34801E0,6.7503095E-1,-5.051045E-1,-3.1482844E0,-5.144275E0,-1.8884806E-1,8.381535E-1,6.649517E0,-2.1179257E-2,-1.9409947E-1,-2.9106453E-1,-4.779454E-2,2.4452882E-2,-5.070091E-2,-1.8105727E-1,9.303545E-2,1.0541757E-1,3.920917E-1],"categories":[],"categories_nodes":[],"categories_segments":[],"categories_sizes":[],"default_left":[0,0,0,0,0,0,0,0,0,0,0,0,0,0,0,0,0,0,0,0,0,0,0],"id":28,"left_children":[1,3,5,7,9,11,-1,-1,13,15,17,19,21,-1,-1,-1,-1,-1,-1,-1,-1,-1,-1],"loss_changes":[5.19663E3,3.518042E2,6.029136E2,7.693994E1,1.2513162E2,1.991142E2,0E0,0E0,5.921589E0,5.0469788E1,5.023509E0,4.7600784E1,1.2866333E2,0E0,0E0,0E0,0E0,0E0,0E0,0E0,0E0,0E0,0E0],"parents":[2147483647,0,0,1,1,2,2,3,3,4,4,5,5,8,8,9,9,10,10,11,11,12,12],"right_children":[2,4,6,8,10,12,-1,-1,14,16,18,20,22,-1,-1,-1,-1,-1,-1,-1,-1,-1,-1],"split_conditions":[4.2609283E-1,4.0822603E-2,7.2514904E-1,3.1991732E-1,5.056885E-1,3.852491E-1,6.7503095E-1,-5.051045E-1,3.2618076E-1,2.2706269E-1,3.0872482E-1,1.47651E-1,2.4832214E-1,-2.1179257E-2,-1.9409947E-1,-2.9106453E-1,-4.779454E-2,2.4452882E-2,-5.070091E-2,-1.8105727E-1,9.303545E-2,1.0541757E-1,3.920917E-1],"split_indices":[0,6,0,0,3,3,0,0,0,6,2,2,2,0,0,0,0,0,0,0,0,0,0],"split_type":[0,0,0,0,0,0,0,0,0,0,0,0,0,0,0,0,0,0,0,0,0,0,0],"sum_hessian":[9.7E1,5E1,4.7E1,2.4E1,2.6E1,3.4E1,1.3E1,2.1E1,3E0,1.9E1,7E0,8E0,2.6E1,1E0,2E0,1.6E1,3E0,4E0,3E0,1E0,7E0,6E0,2E1],"tree_param":{"num_deleted":"0","num_feature":"7","num_nodes":"23","size_leaf_vector":"1"}},{"base_weights":[-1.7118454E-1,-6.1538363E0,8.804487E0,-8.818305E0,-4.1662035E0,4.5594273E0,1.1504751E1,-9.577245E0,-1.8476558E-1,-5.008023E0,-3.7087804E-1,3.2478242E0,3.6500156E-1,4.6617618E-1,7.48096E-1,-4.9518117E-1,-6.5582E-2,-2.868169E-1,-2.6759186E-3,-5.0611705E-2,5.0106343E-2,-8.573781E-3,1.765865E-1],"categories":[],"categories_nodes":[],"categories_segments":[],"categories_sizes":[],"default_left":[0,0,0,0,0,0,0,0,0,0,0,0,0,0,0,0,0,0,0,0,0,0,0],"id":29,"left_children":[1,3,5,7,9,11,13,15,-1,17,19,21,-1,-1,-1,-1,-1,-1,-1,-1,-1,-1,-1],"loss_changes":[5.638541E3,2.9560986E2,4.2737573E2,6.437097E1,1.19013916E2,3.9938538E1,4.6595215E1,4.5238403E1,0E0,1.1097565E2,8.060079E0,1.4532257E1,0E0,0E0,0E0,0E0,0E0,0E0,0E0,0E0,0E0,0E0,0E0],"parents":[2147483647,0,0,1,1,2,2,3,3,4,4,5,5,6,6,7,7,9,9,10,10,11,11],"right_children":[2,4,6,8,10,12,14,16,-1,18,20,22,-1,-1,-1,-1,-1,-1,-1,-1,-1,-1,-1],"split_conditions":[5.326195E-1,4.0822603E-2,4.623299E-1,2.4136133E-3,2.4136133E-3,7.8636515E-1,9.039627E-1,3.1991732E-1,-1.8476558E-1,2.2706269E-1,4.02435E-1,6.7114094E-3,3.6500156E-1,4.6617618E-1,7.48096E-1,-4.9518117E-1,-6.5582E-2,-2.868169E-1,-2.6759186E-3,-5.0611705E-2,5.0106343E-2,-8.573781E-3,1.765865E-1],"split_indices":[1,6,6,1,1,1,1,0,0,6,1,2,0,0,0,0,0,0,0,0,0,0,0],"split_type":[0,0,0,0,0,0,0,0,0,0,0,0,0,0,0,0,0,0,0,0,0,0,0],"sum_hessian":[1.03E2,6.2E1,4.1E1,2.5E1,3.7E1,1.7E1,2.4E1,2.1E1,4E0,3E1,7E0,1.3E1,4E0,1.7E1,7E0,2E1,1E0,2.6E1,4E0,5E0,2E0,1E0,1.2E1],"tree_param":{"num_deleted":"0","num_feature":"7","num_nodes":"23","size_leaf_vector":"1"}},{"base_weights":[2.3000073E-1,-5.55288E0,7.8926563E0,-6.9251018E0,-1.5974925E0,3.2972584E0,1.0233147E1,-9.397043E0,-4.8643E0,-2.917603E0,-9.0598875E-1,2.2665153E0,2.8989294E-1,6.9185243E0,5.8423424E-1,-5.0844824E-1,-1.0572266E-1,-3.7772736E-1,-1.4363132E-1,-1.5564022E-2,-1.7331818E-1,-9.299088E-2,-9.204855E-3,-0E0,1.3398118E-1,8.182122E-2,3.6365458E-1],"categories":[],"categories_nodes":[],"categories_segments":[],"categories_sizes":[],"default_left":[0,0,0,0,0,0,0,0,0,0,0,0,0,0,0,0,0,0,0,0,0,0,0,0,0,0,0],"id":30,"left_children":[1,3,5,7,9,11,13,15,17,19,21,23,-1,25,-1,-1,-1,-1,-1,-1,-1,-1,-1,-1,-1,-1,-1],"loss_changes":[4.4309707E3,2.9746228E2,4.273916E2,1.6681958E2,1.1580105E1,2.7292252E1,5.2015137E1,7.845825E1,1.1120819E2,5.694462E0,7.715954E0,1.2202026E1,0E0,7.808655E0,0E0,0E0,0E0,0E0,0E0,0E0,0E0,0E0,0E0,0E0,0E0,0E0,0E0],"parents":[2147483647,0,0,1,1,2,2,3,3,4,4,5,5,6,6,7,7,8,8,9,9,10,10,11,11,13,13],"right_children":[2,4,6,8,10,12,14,16,18,20,22,24,-1,26,-1,-1,-1,-1,-1,-1,-1,-1,-1,-1,-1,-1,-1],"split_conditions":[5.326195E-1,3.1991732E-1,6.0402685E-1,2.885906E-1,2.869753E-1,6.1723393E-1,7.776827E-1,2.4136133E-3,2.469596E-1,3.401397E-1,1.2080537E-1,9.3959734E-2,2.8989294E-1,6.7114097E-1,5.8423424E-1,-5.0844824E-1,-1.0572266E-1,-3.7772736E-1,-1.4363132E-1,-1.5564022E-2,-1.7331818E-1,-9.299088E-2,-9.204855E-3,-0E0,1.3398118E-1,8.182122E-2,3.6365458E-1],"split_indices":[1,0,2,2,3,0,1,1,3,0,2,2,0,2,0,0,0,0,0,0,0,0,0,0,0,0,0],"split_type":[0,0,0,0,0,0,0,0,0,0,0,0,0,0,0,0,0,0,0,0,0,0,0,0,0,0,0],"sum_hessian":[9.8E1,5.6E1,4.2E1,4.1E1,1.5E1,1.5E1,2.7E1,1.7E1,2.4E1,4E0,1.1E1,1.2E1,3E0,1E1,1.7E1,1.5E1,2E0,9E0,1.5E1,1E0,3E0,4E0,7E0,2E0,1E1,1E0,9E0],"tree_param":{"num_deleted":"0","num_feature":"7","num_nodes":"27","size_leaf_vector":"1"}},{"base_weights":[9.538826E-1,-4.164315E0,8.123402E0,-6.4426465E0,-8.0407876E-1,5.820346E0,1.2306631E1,-7.3639565E0,-3.3929765E0,-3.250232E0,1.3419233E-1,1.3469509E0,6.6920137E0,1.6324975E-1,6.371648E-1,-4.0915877E-1,-1.978526E-1,-1.8644805E-1,-6.7279437E-3,-1.9933446E-1,-4.530297E-2,-9.394582E-2,7.367078E-2,1.814046E-1,-3.3782132E-2,1.927055E-1,3.7091544E-1],"categories":[],"categories_nodes":[],"categories_segments":[],"categories_sizes":[],"default_left":[0,0,0,0,0,0,0,0,0,0,0,0,0,0,0,0,0,0,0,0,0,0,0,0,0,0,0],"id":31,"left_children":[1,3,5,7,9,11,13,15,17,19,21,23,25,-1,-1,-1,-1,-1,-1,-1,-1,-1,-1,-1,-1,-1,-1],"loss_changes":[3.7037256E3,4.4578308E2,3.3119556E2,7.227771E1,5.8126633E1,1.0326233E2,1.2066406E1,3.8970825E1,1.0059654E1,7.9832306E0,5.3951916E1,3.0429462E1,1.9749512E1,0E0,0E0,0E0,0E0,0E0,0E0,0E0,0E0,0E0,0E0,0E0,0E0,0E0,0E0],"parents":[2147483647,0,0,1,1,2,2,3,3,4,4,5,5,6,6,7,7,8,8,9,9,10,10,11,11,12,12],"right_children":[2,4,6,8,10,12,14,16,18,20,22,24,26,-1,-1,-1,-1,-1,-1,-1,-1,-1,-1,-1,-1,-1,-1],"split_conditions":[5.369894E-1,3.070906E-1,7.354857E-1,5.637584E-1,2.869753E-1,3.852491E-1,8.734526E-2,4.215956E-1,9.328859E-1,6.107383E-1,3.6995462E-1,5.975433E-1,6.0402685E-1,1.6324975E-1,6.371648E-1,-4.0915877E-1,-1.978526E-1,-1.8644805E-1,-6.7279437E-3,-1.9933446E-1,-4.530297E-2,-9.394582E-2,7.367078E-2,1.814046E-1,-3.3782132E-2,1.927055E-1,3.7091544E-1],"split_indices":[0,0,0,2,3,3,4,4,2,2,0,0,2,0,0,0,0,0,0,0,0,0,0,0,0,0,0],"split_type":[0,0,0,0,0,0,0,0,0,0,0,0,0,0,0,0,0,0,0,0,0,0,0,0,0,0,0],"sum_hessian":[9.9E1,5.8E1,4.1E1,3.4E1,2.4E1,2.8E1,1.3E1,2.5E1,9E0,6E0,1.8E1,5E0,2.3E1,1E0,1.2E1,1.9E1,6E0,8E0,1E0,4E0,2E0,7E0,1.1E1,2E0,3E0,6E0,1.7E1],"tree_param":{"num_deleted":"0","num_feature":"7","num_nodes":"27","size_leaf_vector":"1"}},{"base_weights":[5.0754964E-1,-5.2347836E0,7.364523E0,-7.737193E0,-3.3290195E0,3.8635657E0,9.905122E0,-8.942627E0,-2.8146923E0,-4.6430793E0,-6.34158E-1,1.4092346E0,5.257828E0,2.7301165E-1,1.0960577E1,-5.026104E-1,-2.013638E-1,-1.6333863E-1,-1.1357269E-2,-2.67287E-1,-5.824433E-2,-5.327375E-2,4.908089E-2,-9.750112E-4,9.1725804E-2,1.8018454E-1,3.581855E-1,3.775447E-1,6.298062E-1],"categories":[],"categories_nodes":[],"categories_segments":[],"categories_sizes":[],"default_left":[0,0,0,0,0,0,0,0,0,0,0,0,0,0,0,0,0,0,0,0,0,0,0,0,0,0,0,0,0],"id":32,"left_children":[1,3,5,7,9,11,13,15,17,19,21,23,25,-1,27,-1,-1,-1,-1,-1,-1,-1,-1,-1,-1,-1,-1,-1,-1],"loss_changes":[3.9762668E3,2.354314E2,3.6950244E2,1.1012964E2,1.13387726E2,6.378537E1,6.0486572E1,5.628064E1,5.9272537E0,4.6889465E1,9.417212E0,5.6858025E0,1.4091156E1,0E0,1.4407227E1,0E0,0E0,0E0,0E0,0E0,0E0,0E0,0E0,0E0,0E0,0E0,0E0,0E0,0E0],"parents":[2147483647,0,0,1,1,2,2,3,3,4,4,5,5,6,6,7,7,8,8,9,9,10,10,11,11,12,12,14,14],"right_children":[2,4,6,8,10,12,14,16,18,20,22,24,26,-1,28,-1,-1,-1,-1,-1,-1,-1,-1,-1,-1,-1,-1,-1,-1],"split_conditions":[5.326195E-1,4.135203E-2,4.623299E-1,2.4136133E-3,3.668105E-1,1.5007901E-1,1.2792297E-1,4.5323247E-1,6.176932E-1,2.2706269E-1,4.02435E-1,4.2588584E-2,6.800577E-1,2.7301165E-1,5.7371885E-1,-5.026104E-1,-2.013638E-1,-1.6333863E-1,-1.1357269E-2,-2.67287E-1,-5.824433E-2,-5.327375E-2,4.908089E-2,-9.750112E-4,9.1725804E-2,1.8018454E-1,3.581855E-1,3.775447E-1,6.298062E-1],"split_indices":[1,6,6,1,3,6,4,4,3,6,1,6,1,0,6,0,0,0,0,0,0,0,0,0,0,0,0,0,0],"split_type":[0,0,0,0,0,0,0,0,0,0,0,0,0,0,0,0,0,0,0,0,0,0,0,0,0,0,0,0,0],"sum_hessian":[9.9E1,5.4E1,4.5E1,2.2E1,3.2E1,2E1,2.5E1,1.7E1,5E0,2.1E1,1.1E1,8E0,1.2E1,6E0,1.9E1,1.3E1,4E0,4E0,1E0,1.7E1,4E0,9E0,2E0,2E0,6E0,8E0,4E0,8E0,1.1E1],"tree_param":{"num_deleted":"0","num_feature":"7","num_nodes":"29","size_leaf_vector":"1"}},{"base_weights":[3.393012E-1,-5.191687E0,6.3359203E0,-7.05005E0,-3.6524985E0,3.626805E0,1.01321535E1,-8.093572E0,-1.4508648E-1,-3.2078245E-1,-2.3515506E0,-1.4851177E-1,4.229187E0,2.0839861E-1,1.0983689E1,-2.4044214E-1,-4.5265695E-1,-1.7480142E-1,-3.092871E-2,7.665664E-2,2.545575E-1,3.3213583E-1,6.1719424E-1],"categories":[],"categories_nodes":[],"categories_segments":[],"categories_sizes":[],"default_left":[0,0,0,0,0,0,0,0,0,0,0,0,0,0,0,0,0,0,0,0,0,0,0],"id":33,"left_children":[1,3,5,7,9,11,13,15,-1,-1,17,-1,19,-1,21,-1,-1,-1,-1,-1,-1,-1,-1],"loss_changes":[3.2502302E3,1.1905835E2,4.45245E2,7.065015E1,9.187799E1,1.2793182E2,4.920056E1,8.661133E0,0E0,0E0,4.1059746E1,0E0,5.4277405E1,0E0,1.0577515E1,0E0,0E0,0E0,0E0,0E0,0E0,0E0,0E0],"parents":[2147483647,0,0,1,1,2,2,3,3,4,4,5,5,6,6,7,7,10,10,12,12,14,14],"right_children":[2,4,6,8,10,12,14,16,-1,-1,18,-1,20,-1,22,-1,-1,-1,-1,-1,-1,-1,-1],"split_conditions":[4.2304662E-1,4.135203E-2,5.301126E-1,2.669132E-1,2.469596E-1,2.7128285E-1,1.2792297E-1,9.53185E-3,-1.4508648E-1,-3.2078245E-1,2.6202714E-1,-1.4851177E-1,1.5007901E-1,2.0839861E-1,5.7371885E-1,-2.4044214E-1,-4.5265695E-1,-1.7480142E-1,-3.092871E-2,7.665664E-2,2.545575E-1,3.3213583E-1,6.1719424E-1],"split_indices":[0,6,6,0,3,3,4,6,0,0,0,0,6,0,6,0,0,0,0,0,0,0,0],"split_type":[0,0,0,0,0,0,0,0,0,0,0,0,0,0,0,0,0,0,0,0,0,0,0],"sum_hessian":[9.6E1,5E1,4.6E1,2.1E1,2.9E1,2.8E1,1.8E1,1.6E1,5E0,8E0,2.1E1,2E0,2.6E1,3E0,1.5E1,5E0,1.1E1,1.2E1,9E0,7E0,1.9E1,5E0,1E1],"tree_param":{"num_deleted":"0","num_feature":"7","num_nodes":"23","size_leaf_vector":"1"}},{"base_weights":[-1.5942924E-1,-4.9464474E0,6.730656E0,-5.6678853E0,-1.2740016E0,3.1291413E0,8.684256E0,-7.8040648E0,-4.051503E0,-2.3576908E0,4.7796372E-1,3.729138E-1,4.0084743E0,9.629444E-2,9.163041E0,-4.150992E-1,-1.0909311E-1,-2.3138247E-1,-4.7948875E-2,-1.4515647E-1,-3.146983E-2,-8.145942E-3,4.9642917E-2,-6.827192E-3,6.2768616E-2,6.61095E-2,2.2017561E-1,2.441808E-1,5.013455E-1],"categories":[],"categories_nodes":[],"categories_segments":[],"categories_sizes":[],"default_left":[0,0,0,0,0,0,0,0,0,0,0,0,0,0,0,0,0,0,0,0,0,0,0,0,0,0,0,0,0],"id":34,"left_children":[1,3,5,7,9,11,13,15,17,19,21,23,25,-1,27,-1,-1,-1,-1,-1,-1,-1,-1,-1,-1,-1,-1,-1,-1],"loss_changes":[3.298428E3,1.4840198E2,2.6011682E2,1.3638757E2,2.2199312E1,3.684532E1,6.5375244E1,3.6825806E1,4.8455902E1,4.418274E0,1.8946846E0,2.5311723E0,6.33934E0,0E0,3.826587E1,0E0,0E0,0E0,0E0,0E0,0E0,0E0,0E0,0E0,0E0,0E0,0E0,0E0,0E0],"parents":[2147483647,0,0,1,1,2,2,3,3,4,4,5,5,6,6,7,7,8,8,9,9,10,10,11,11,12,12,14,14],"right_children":[2,4,6,8,10,12,14,16,18,20,22,24,26,-1,28,-1,-1,-1,-1,-1,-1,-1,-1,-1,-1,-1,-1,-1,-1],"split_conditions":[5.326195E-1,2.4136133E-3,7.1450084E-1,3.9258868E-2,2.6203576E-1,1.5007901E-1,1.3455911E-1,7.342095E-1,2.2706269E-1,5.937623E-1,2.7692625E-1,6.990977E-1,5.6344104E-1,9.629444E-2,1.2792297E-1,-4.150992E-1,-1.0909311E-1,-2.3138247E-1,-4.7948875E-2,-1.4515647E-1,-3.146983E-2,-8.145942E-3,4.9642917E-2,-6.827192E-3,6.2768616E-2,6.61095E-2,2.2017561E-1,2.441808E-1,5.013455E-1],"split_indices":[1,1,1,6,4,6,6,3,6,3,1,3,1,0,4,0,0,0,0,0,0,0,0,0,0,0,0,0,0],"split_type":[0,0,0,0,0,0,0,0,0,0,0,0,0,0,0,0,0,0,0,0,0,0,0,0,0,0,0,0,0],"sum_hessian":[9.8E1,5.8E1,4E1,4.8E1,1E1,1.5E1,2.5E1,1.9E1,2.9E1,6E0,4E0,4E0,1.1E1,2E0,2.3E1,1.7E1,2E0,2.4E1,5E0,4E0,2E0,2E0,2E0,3E0,1E0,2E0,9E0,5E0,1.8E1],"tree_param":{"num_deleted":"0","num_feature":"7","num_nodes":"29","size_leaf_vector":"1"}},{"base_weights":[-2.9012322E-1,-4.6331563E0,6.2849813E0,-6.3238773E0,-2.3914173E0,3.0712447E0,8.382744E0,-7.3907204E0,-2.64666E0,-3.6064713E0,2.482151E-2,5.6924486E-1,3.7896106E0,3.285397E-1,5.4731506E-1,-3.9555046E-1,-1.8536824E-1,-2.1688378E-1,-7.647797E-2,-2.1324585E-1,-5.107644E-2,-1.5819196E-2,4.79881E-2,8.356501E-2,-4.954701E-3,1.2823932E-1,2.6081857E-1],"categories":[],"categories_nodes":[],"categories_segments":[],"categories_sizes":[],"default_left":[0,0,0,0,0,0,0,0,0,0,0,0,0,0,0,0,0,0,0,0,0,0,0,0,0,0,0],"id":35,"left_children":[1,3,5,7,9,11,13,15,17,19,21,23,25,-1,-1,-1,-1,-1,-1,-1,-1,-1,-1,-1,-1,-1,-1],"loss_changes":[2.798876E3,2.0762463E2,2.3603369E2,1.0889502E2,7.971591E1,2.7961853E1,3.3158325E1,1.7419434E1,9.779861E0,2.5751404E1,3.5580587E0,4.0055685E0,8.560913E0,0E0,0E0,0E0,0E0,0E0,0E0,0E0,0E0,0E0,0E0,0E0,0E0,0E0,0E0],"parents":[2147483647,0,0,1,1,2,2,3,3,4,4,5,5,6,6,7,7,8,8,9,9,10,10,11,11,12,12],"right_children":[2,4,6,8,10,12,14,16,18,20,22,24,26,-1,-1,-1,-1,-1,-1,-1,-1,-1,-1,-1,-1,-1,-1],"split_conditions":[5.326195E-1,7.830408E-2,3.354187E-1,5.3060025E-1,3.03989E-1,7.930124E-2,9.039627E-1,4.5323247E-1,4.3493775E-3,2.2706269E-1,2.7692625E-1,6.4110166E-1,3.363136E-1,3.285397E-1,5.4731506E-1,-3.9555046E-1,-1.8536824E-1,-2.1688378E-1,-7.647797E-2,-2.1324585E-1,-5.107644E-2,-1.5819196E-2,4.79881E-2,8.356501E-2,-4.954701E-3,1.2823932E-1,2.6081857E-1],"split_indices":[1,6,6,3,4,6,1,4,6,6,1,1,4,0,0,0,0,0,0,0,0,0,0,0,0,0,0],"split_type":[0,0,0,0,0,0,0,0,0,0,0,0,0,0,0,0,0,0,0,0,0,0,0,0,0,0,0],"sum_hessian":[9.6E1,5.8E1,3.8E1,3.2E1,2.6E1,1.6E1,2.2E1,2.4E1,8E0,1.7E1,9E0,4E0,1.2E1,1.5E1,7E0,2E1,4E0,2E0,6E0,1.3E1,4E0,7E0,2E0,1E0,3E0,8E0,4E0],"tree_param":{"num_deleted":"0","num_feature":"7","num_nodes":"27","size_leaf_vector":"1"}},{"base_weights":[4.7981825E-1,-3.8397229E0,6.56174E0,-6.0374207E0,-1.8037273E0,5.0661817E0,5.486457E-1,-7.6499753E0,-3.8287146E0,-2.308475E0,-3.5837412E-1,3.9158587E0,3.9356896E-1,-3.999033E-1,-7.562002E-2,-2.1429272E-1,-8.518432E-2,-1.5083924E-1,-1.727069E-2,-4.3633398E-2,4.6388473E-2,1.17367506E-1,2.6402107E-1],"categories":[],"categories_nodes":[],"categories_segments":[],"categories_sizes":[],"default_left":[0,0,0,0,0,0,0,0,0,0,0,0,0,0,0,0,0,0,0,0,0,0,0],"id":36,"left_children":[1,3,5,7,9,11,-1,13,15,17,19,21,-1,-1,-1,-1,-1,-1,-1,-1,-1,-1,-1],"loss_changes":[2.468681E3,2.344237E2,2.0009485E2,6.216565E1,2.079219E1,6.803143E1,0E0,1.6862732E1,4.727951E0,2.9211761E1,6.7572255E0,3.8210114E1,0E0,0E0,0E0,0E0,0E0,0E0,0E0,0E0,0E0,0E0,0E0],"parents":[2147483647,0,0,1,1,2,2,3,3,4,4,5,5,7,7,8,8,9,9,10,10,11,11],"right_children":[2,4,6,8,10,12,-1,14,16,18,20,22,-1,-1,-1,-1,-1,-1,-1,-1,-1,-1,-1],"split_conditions":[5.326195E-1,2.4777254E-1,9.039627E-1,2.885906E-1,2.7018368E-1,4.0715268E-1,5.486457E-1,7.4415404E-1,6.6442955E-1,6.442953E-1,3.2255846E-1,6.7114097E-1,3.9356896E-1,-3.999033E-1,-7.562002E-2,-2.1429272E-1,-8.518432E-2,-1.5083924E-1,-1.727069E-2,-4.3633398E-2,4.6388473E-2,1.17367506E-1,2.6402107E-1],"split_indices":[1,0,1,2,1,4,0,4,2,2,4,2,0,0,0,0,0,0,0,0,0,0,0],"split_type":[0,0,0,0,0,0,0,0,0,0,0,0,0,0,0,0,0,0,0,0,0,0,0],"sum_hessian":[9.2E1,5.4E1,3.8E1,2.5E1,2.9E1,3E1,8E0,1.3E1,1.2E1,2.1E1,8E0,2.3E1,7E0,1.2E1,1E0,9E0,3E0,1.5E1,6E0,6E0,2E0,1.2E1,1.1E1],"tree_param":{"num_deleted":"0","num_feature":"7","num_nodes":"23","size_leaf_vector":"1"}},{"base_weights":[-3.611355E-1,-4.0298557E0,5.4960437E0,-6.595316E0,-3.0829277E0,2.6972687E0,7.2771506E0,-3.926944E-1,-2.4873943E0,-4.8212585E0,-1.7417719E0,9.9027574E-1,4.267977E0,2.0625578E-1,8.195094E0,-1.524442E-1,-3.5359003E-3,-2.9976043E-1,-6.309157E-2,-1.4913851E-1,-4.750039E-2,-1.5031534E-2,7.081696E-2,8.338284E-2,2.4200705E-1,1.1061112E-1,4.2199022E-1],"categories":[],"categories_nodes":[],"categories_segments":[],"categories_sizes":[],"default_left":[0,0,0,0,0,0,0,0,0,0,0,0,0,0,0,0,0,0,0,0,0,0,0,0,0,0,0],"id":37,"left_children":[1,3,5,7,9,11,13,-1,15,17,19,21,23,-1,25,-1,-1,-1,-1,-1,-1,-1,-1,-1,-1,-1,-1],"loss_changes":[2.063395E3,1.2202832E2,1.6381616E2,5.6981873E1,9.585791E1,3.8146713E1,2.8616943E1,0E0,6.257122E0,7.110254E1,2.3302673E1,5.4874372E0,3.1799927E0,0E0,3.689087E0,0E0,0E0,0E0,0E0,0E0,0E0,0E0,0E0,0E0,0E0,0E0,0E0],"parents":[2147483647,0,0,1,1,2,2,3,3,4,4,5,5,6,6,8,8,9,9,10,10,11,11,12,12,14,14],"right_children":[2,4,6,8,10,12,14,-1,16,18,20,22,24,-1,26,-1,-1,-1,-1,-1,-1,-1,-1,-1,-1,-1,-1],"split_conditions":[4.02435E-1,2.1361318E-1,7.1450084E-1,5.302013E-1,2.751678E-1,5.771812E-1,1.2792297E-1,-3.926944E-1,2.4136133E-3,2.4136133E-3,2.050595E-1,1.6778524E-1,4.8234603E-1,2.0625578E-1,2.5503355E-1,-1.524442E-1,-3.5359003E-3,-2.9976043E-1,-6.309157E-2,-1.4913851E-1,-4.750039E-2,-1.5031534E-2,7.081696E-2,8.338284E-2,2.4200705E-1,1.1061112E-1,4.2199022E-1],"split_indices":[1,3,1,2,2,2,4,0,1,1,0,2,3,0,2,0,0,0,0,0,0,0,0,0,0,0,0],"split_type":[0,0,0,0,0,0,0,0,0,0,0,0,0,0,0,0,0,0,0,0,0,0,0,0,0,0,0],"sum_hessian":[9.4E1,5.8E1,3.6E1,1.4E1,4.4E1,1.5E1,2.1E1,1E1,4E0,1.8E1,2.6E1,8E0,7E0,6E0,1.5E1,3E0,1E0,1.3E1,5E0,9E0,1.7E1,2E0,6E0,2E0,5E0,1E0,1.4E1],"tree_param":{"num_deleted":"0","num_feature":"7","num_nodes":"27","size_leaf_vector":"1"}},{"base_weights":[4.000296E-1,-3.9562743E0,5.6968336E0,-5.7763004E0,-2.5097013E0,1.2396326E0,6.744811E0,-6.6024284E0,-2.1808443E0,-3.1073937E0,-2.4098854E-1,-1.3032226E-1,1.6109116E0,5.4643745E0,5.055064E-1,-3.714548E-1,-1.3909699E-1,-5.1531035E-2,-1.4770973E-1,-1.804511E-1,-1.2937531E-2,-2.7254254E-2,1.5243187E-3,-1.4356956E-2,2.0827865E-3,9.417748E-2,-4.9388506E-3,6.795563E-2,2.8572136E-1],"categories":[],"categories_nodes":[],"categories_segments":[],"categories_sizes":[],"default_left":[0,0,0,0,0,0,0,0,0,0,0,0,0,0,0,0,0,0,0,0,0,0,0,0,0,0,0,0,0],"id":38,"left_children":[1,3,5,7,9,11,13,15,17,19,21,23,25,27,-1,-1,-1,-1,-1,-1,-1,-1,-1,-1,-1,-1,-1,-1,-1],"loss_changes":[2.3532356E3,1.3211133E2,2.0570874E2,5.6010254E1,4.3664062E1,5.4443493E0,1.0263281E2,3.8318787E1,1.8940182E0,3.5832336E1,7.285142E-1,1.17416486E-1,4.0935383E0,2.1295471E1,0E0,0E0,0E0,0E0,0E0,0E0,0E0,0E0,0E0,0E0,0E0,0E0,0E0,0E0,0E0],"parents":[2147483647,0,0,1,1,2,2,3,3,4,4,5,5,6,6,7,7,8,8,9,9,10,10,11,11,12,12,13,13],"right_children":[2,4,6,8,10,12,14,16,18,20,22,24,26,28,-1,-1,-1,-1,-1,-1,-1,-1,-1,-1,-1,-1,-1,-1,-1],"split_conditions":[5.326195E-1,4.135203E-2,5.369894E-1,2.4136133E-3,6.8456376E-1,9.3959734E-2,9.039627E-1,4.5323247E-1,3.2618076E-1,2.4136133E-3,2.826685E-1,4.607372E-1,4.9471176E-1,5.797795E-1,5.055064E-1,-3.714548E-1,-1.3909699E-1,-5.1531035E-2,-1.4770973E-1,-1.804511E-1,-1.2937531E-2,-2.7254254E-2,1.5243187E-3,-1.4356956E-2,2.0827865E-3,9.417748E-2,-4.9388506E-3,6.795563E-2,2.8572136E-1],"split_indices":[1,6,0,1,2,2,1,4,0,1,4,0,0,1,0,0,0,0,0,0,0,0,0,0,0,0,0,0,0],"split_type":[0,0,0,0,0,0,0,0,0,0,0,0,0,0,0,0,0,0,0,0,0,0,0,0,0,0,0,0,0],"sum_hessian":[1E2,5.5E1,4.5E1,2.3E1,3.2E1,9E0,3.6E1,1.8E1,5E0,2.5E1,7E0,2E0,7E0,2.8E1,8E0,1.4E1,4E0,3E0,2E0,2.1E1,4E0,3E0,4E0,1E0,1E0,6E0,1E0,2E0,2.6E1],"tree_param":{"num_deleted":"0","num_feature":"7","num_nodes":"29","size_leaf_vector":"1"}},{"base_weights":[2.964962E-1,-3.7075512E0,5.0080075E0,-4.4610305E0,-4.1599113E-1,3.7256222E0,3.9351854E-1,-6.9286065E0,-3.1574607E0,-1.5040044E0,7.2468734E-1,8.280812E-1,4.335147E0,-4.132414E-1,-2.1987048E-1,-2.4077597E-1,-9.694102E-2,-9.886663E-2,-1.691161E-2,-0E0,5.4779608E-2,-1.3652331E-2,6.715708E-2,7.202059E-2,2.3858023E-1],"categories":[],"categories_nodes":[],"categories_segments":[],"categories_sizes":[],"default_left":[0,0,0,0,0,0,0,0,0,0,0,0,0,0,0,0,0,0,0,0,0,0,0,0,0],"id":39,"left_children":[1,3,5,7,9,11,-1,13,15,17,19,21,23,-1,-1,-1,-1,-1,-1,-1,-1,-1,-1,-1,-1],"loss_changes":[1.8486138E3,1.2910303E2,1.3469775E2,1.15430786E2,1.4819671E1,5.4175873E1,0E0,9.741333E0,5.060544E1,2.4104023E0,1.6502578E0,4.4437814E0,2.6618256E1,0E0,0E0,0E0,0E0,0E0,0E0,0E0,0E0,0E0,0E0,0E0,0E0],"parents":[2147483647,0,0,1,1,2,2,3,3,4,4,5,5,7,7,8,8,9,9,10,10,11,11,12,12],"right_children":[2,4,6,8,10,12,-1,14,16,18,20,22,24,-1,-1,-1,-1,-1,-1,-1,-1,-1,-1,-1,-1],"split_conditions":[5.326195E-1,5.627697E-1,3E-1,3.5567813E-2,1.2080537E-1,1.5007901E-1,3.9351854E-1,3.5209885E-1,2.504904E-1,6.894861E-1,2.7692625E-1,6.4185447E-1,5.797795E-1,-4.132414E-1,-2.1987048E-1,-2.4077597E-1,-9.694102E-2,-9.886663E-2,-1.691161E-2,-0E0,5.4779608E-2,-1.3652331E-2,6.715708E-2,7.202059E-2,2.3858023E-1],"split_indices":[1,3,5,6,2,6,0,3,3,3,1,1,1,0,0,0,0,0,0,0,0,0,0,0,0],"split_type":[0,0,0,0,0,0,0,0,0,0,0,0,0,0,0,0,0,0,0,0,0,0,0,0,0],"sum_hessian":[9.6E1,5.2E1,4.4E1,4.2E1,1E1,3.2E1,1.2E1,1.3E1,2.9E1,5E0,5E0,6E0,2.6E1,7E0,6E0,1.1E1,1.8E1,3E0,2E0,2E0,3E0,2E0,4E0,4E0,2.2E1],"tree_param":{"num_deleted":"0","num_feature":"7","num_nodes":"25","size_leaf_vector":"1"}},{"base_weights":[-2.3830345E-2,-3.3845887E0,5.015403E0,-4.1091723E0,-9.302257E-1,3.0730088E0,7.213162E0,-5.8623395E0,-2.654635E0,-1.8566804E0,1.0000734E-1,1.4593531E0,3.9989765E0,1.4508665E-1,3.937666E-1,-1.22779325E-1,-3.277152E-1,-2.5344744E-1,-8.593453E-2,-1.05276525E-1,-3.6827085E-4,5.2725393E-2,-3.3179726E-2,-7.2032674E-3,9.453579E-2,3.953911E-2,2.0886195E-1],"categories":[],"categories_nodes":[],"categories_segments":[],"categories_sizes":[],"default_left":[0,0,0,0,0,0,0,0,0,0,0,0,0,0,0,0,0,0,0,0,0,0,0,0,0,0,0],"id":40,"left_children":[1,3,5,7,9,11,13,15,17,19,21,23,25,-1,-1,-1,-1,-1,-1,-1,-1,-1,-1,-1,-1,-1,-1],"loss_changes":[1.6934408E3,1.0237714E2,1.4756183E2,1.0088806E2,1.4678313E1,2.7984695E1,2.7458435E1,3.0151428E1,5.1620193E1,3.4548168E0,6.5697236E0,7.3636017E0,4.2065277E0,0E0,0E0,0E0,0E0,0E0,0E0,0E0,0E0,0E0,0E0,0E0,0E0,0E0,0E0],"parents":[2147483647,0,0,1,1,2,2,3,3,4,4,5,5,6,6,7,7,8,8,9,9,10,10,11,11,12,12],"right_children":[2,4,6,8,10,12,14,16,18,20,22,24,26,-1,-1,-1,-1,-1,-1,-1,-1,-1,-1,-1,-1,-1,-1],"split_conditions":[5.326195E-1,2.4136133E-3,7.541737E-1,3.691275E-1,1.2751678E-1,5.3691274E-1,8.734526E-2,6.0402684E-2,2.342095E-1,6.176932E-1,3.0872482E-1,9.3959734E-2,5.5340993E-1,1.4508665E-1,3.937666E-1,-1.22779325E-1,-3.277152E-1,-2.5344744E-1,-8.593453E-2,-1.05276525E-1,-3.6827085E-4,5.2725393E-2,-3.3179726E-2,-7.2032674E-3,9.453579E-2,3.953911E-2,2.0886195E-1],"split_indices":[1,1,1,2,2,2,4,2,3,3,2,2,1,0,0,0,0,0,0,0,0,0,0,0,0,0,0],"split_type":[0,0,0,0,0,0,0,0,0,0,0,0,0,0,0,0,0,0,0,0,0,0,0,0,0,0,0],"sum_hessian":[9.8E1,5.9E1,3.9E1,4.5E1,1.4E1,2.2E1,1.7E1,1.9E1,2.6E1,7E0,7E0,9E0,1.3E1,3E0,1.4E1,4E0,1.5E1,6E0,2E1,6E0,1E0,3E0,4E0,2E0,7E0,1E0,1.2E1],"tree_param":{"num_deleted":"0","num_feature":"7","num_nodes":"27","size_leaf_vector":"1"}},{"base_weights":[2.1373326E-1,-3.3518121E0,4.937509E0,-4.577768E0,-1.5954782E0,3.9894948E0,4.6143985E-1,-5.4533434E0,-1.1474268E0,-1.9978571E0,3.9360893E-1,2.534437E0,5.546361E0,-2.8841522E-1,-1.12699054E-1,-9.936991E-2,-2.5976837E-2,-1.2078346E-1,-7.886223E-3,-1.4803956E-2,4.9271367E-2,2.6027858E-2,1.5624948E-1,1.0841906E-1,3.0540934E-1],"categories":[],"categories_nodes":[],"categories_segments":[],"categories_sizes":[],"default_left":[0,0,0,0,0,0,0,0,0,0,0,0,0,0,0,0,0,0,0,0,0,0,0,0,0],"id":41,"left_children":[1,3,5,7,9,11,-1,13,15,17,19,21,23,-1,-1,-1,-1,-1,-1,-1,-1,-1,-1,-1,-1],"loss_changes":[1.6841492E3,1.1481055E2,1.367926E2,9.219891E1,2.0955967E1,6.895221E1,0E0,1.2395569E1,2.936058E0,1.550708E1,2.4015498E0,2.2984055E1,1.8190674E1,0E0,0E0,0E0,0E0,0E0,0E0,0E0,0E0,0E0,0E0,0E0,0E0],"parents":[2147483647,0,0,1,1,2,2,3,3,4,4,5,5,7,7,8,8,9,9,10,10,11,11,12,12],"right_children":[2,4,6,8,10,12,-1,14,16,18,20,22,24,-1,-1,-1,-1,-1,-1,-1,-1,-1,-1,-1,-1],"split_conditions":[5.326195E-1,3.5209885E-1,9.039627E-1,4.5323247E-1,7.342095E-1,3.0330124E-1,4.6143985E-1,3.1991732E-1,5.337001E-1,3.6995462E-1,2.7692625E-1,4.854042E-1,6.4110166E-1,-2.8841522E-1,-1.12699054E-1,-9.936991E-2,-2.5976837E-2,-1.2078346E-1,-7.886223E-3,-1.4803956E-2,4.9271367E-2,2.6027858E-2,1.5624948E-1,1.0841906E-1,3.0540934E-1],"split_indices":[1,3,1,4,3,4,0,0,4,0,1,0,1,0,0,0,0,0,0,0,0,0,0,0,0],"split_type":[0,0,0,0,0,0,0,0,0,0,0,0,0,0,0,0,0,0,0,0,0,0,0,0,0],"sum_hessian":[9.8E1,5.6E1,4.2E1,3.2E1,2.4E1,3.6E1,6E0,2.5E1,7E0,2E1,4E0,2E1,1.6E1,2.2E1,3E0,2E0,5E0,1.6E1,4E0,2E0,2E0,5E0,1.5E1,3E0,1.3E1],"tree_param":{"num_deleted":"0","num_feature":"7","num_nodes":"25","size_leaf_vector":"1"}},{"base_weights":[-1.4650413E-1,-3.2810178E0,4.677017E0,-4.633502E0,-1.8630972E0,2.9594188E0,7.525627E0,-5.3021607E0,-2.98744E0,-4.234329E0,-1.1206284E0,5.2686435E-1,3.8226302E0,9.654423E-2,3.899885E-1,-2.7671075E-1,-1.0545585E-1,-7.365799E-4,-1.6366188E-1,-3.334294E-1,-9.534541E-2,-8.1480645E-2,2.0335255E-2,-1.5520388E-2,4.3717816E-2,7.449492E-2,2.2710922E-1],"categories":[],"categories_nodes":[],"categories_segments":[],"categories_sizes":[],"default_left":[0,0,0,0,0,0,0,0,0,0,0,0,0,0,0,0,0,0,0,0,0,0,0,0,0,0,0],"id":42,"left_children":[1,3,5,7,9,11,13,15,17,19,21,23,25,-1,-1,-1,-1,-1,-1,-1,-1,-1,-1,-1,-1,-1,-1],"loss_changes":[1.4969064E3,1.0578058E2,1.6749805E2,1.6350769E1,4.929693E1,5.2146072E1,5.439026E0,2.3825684E0,8.9685135E0,2.6084877E1,2.021979E1,2.6553645E0,2.4521423E1,0E0,0E0,0E0,0E0,0E0,0E0,0E0,0E0,0E0,0E0,0E0,0E0,0E0,0E0],"parents":[2147483647,0,0,1,1,2,2,3,3,4,4,5,5,6,6,7,7,8,8,9,9,10,10,11,11,12,12],"right_children":[2,4,6,8,10,12,14,16,18,20,22,24,26,-1,-1,-1,-1,-1,-1,-1,-1,-1,-1,-1,-1,-1,-1],"split_conditions":[5.326195E-1,2.4777254E-1,7.045754E-1,3.2599726E-1,1.3961485E-1,5.369894E-1,8.734526E-2,2.184071E-1,3.4869325E-1,2.710867E-1,5.339349E-1,4.6582642E-1,6.3895214E-1,9.654423E-2,3.899885E-1,-2.7671075E-1,-1.0545585E-1,-7.365799E-4,-1.6366188E-1,-3.334294E-1,-9.534541E-2,-8.1480645E-2,2.0335255E-2,-1.5520388E-2,4.3717816E-2,7.449492E-2,2.2710922E-1],"split_indices":[1,0,0,4,4,0,4,0,4,3,3,0,1,0,0,0,0,0,0,0,0,0,0,0,0,0,0],"split_type":[0,0,0,0,0,0,0,0,0,0,0,0,0,0,0,0,0,0,0,0,0,0,0,0,0,0,0],"sum_hessian":[9.7E1,5.9E1,3.8E1,2.9E1,3E1,2.5E1,1.3E1,1.9E1,1E1,6E0,2.4E1,7E0,1.8E1,1E0,1.2E1,1.7E1,2E0,1E0,9E0,2E0,4E0,1.8E1,6E0,2E0,5E0,5E0,1.3E1],"tree_param":{"num_deleted":"0","num_feature":"7","num_nodes":"27","size_leaf_vector":"1"}},{"base_weights":[-2.3022705E-1,-2.959659E0,3.9391751E0,-4.4363933E0,-1.8596225E0,1.729452E0,5.3007574E0,-5.4770007E0,-1.6580529E0,-2.3773847E0,-8.859978E-2,-2.0064075E-2,2.0696483E0,1.760727E-1,6.390879E0,-2.9146793E-1,-9.281054E-2,-4.4810396E-2,-1.085423E-1,-1.6574852E-1,-4.6041112E-2,-2.4530588E-2,1.5556606E-2,-6.2652207E-3,1.127911E-1,7.98164E-2,3.3245322E-1],"categories":[],"categories_nodes":[],"categories_segments":[],"categories_sizes":[],"default_left":[0,0,0,0,0,0,0,0,0,0,0,0,0,0,0,0,0,0,0,0,0,0,0,0,0,0,0],"id":43,"left_children":[1,3,5,7,9,11,13,15,17,19,21,-1,23,-1,25,-1,-1,-1,-1,-1,-1,-1,-1,-1,-1,-1,-1],"loss_changes":[1.0926702E3,8.533917E1,1.0446094E2,5.95932E1,3.163668E1,1.2595234E1,2.1115662E1,1.00997925E1,8.7311745E-1,3.33965E1,1.616866E0,0E0,6.2167053E0,0E0,4.6538696E0,0E0,0E0,0E0,0E0,0E0,0E0,0E0,0E0,0E0,0E0,0E0,0E0],"parents":[2147483647,0,0,1,1,2,2,3,3,4,4,5,5,6,6,7,7,8,8,9,9,10,10,12,12,14,14],"right_children":[2,4,6,8,10,12,14,16,18,20,22,-1,24,-1,26,-1,-1,-1,-1,-1,-1,-1,-1,-1,-1,-1,-1],"split_conditions":[5.326195E-1,2.885906E-1,6.0402685E-1,2.4136133E-3,6.8456376E-1,1.6778524E-1,2.551582E-1,7.4415404E-1,3.2618076E-1,3.03989E-1,2.826685E-1,-2.0064075E-2,4.6582642E-1,1.760727E-1,6.0503435E-1,-2.9146793E-1,-9.281054E-2,-4.4810396E-2,-1.085423E-1,-1.6574852E-1,-4.6041112E-2,-2.4530588E-2,1.5556606E-2,-6.2652207E-3,1.127911E-1,7.98164E-2,3.3245322E-1],"split_indices":[1,2,2,1,2,2,4,4,0,4,4,0,0,0,1,0,0,0,0,0,0,0,0,0,0,0,0],"split_type":[0,0,0,0,0,0,0,0,0,0,0,0,0,0,0,0,0,0,0,0,0,0,0,0,0,0,0],"sum_hessian":[9.4E1,5.7E1,3.7E1,2.3E1,3.4E1,1.5E1,2.2E1,1.6E1,7E0,2.6E1,8E0,2E0,1.3E1,1E1,1.2E1,1.4E1,2E0,4E0,3E0,1.5E1,1.1E1,4E0,4E0,1E0,1.2E1,1E0,1.1E1],"tree_param":{"num_deleted":"0","num_feature":"7","num_nodes":"27","size_leaf_vector":"1"}},{"base_weights":[-3.9183594E-2,-3.2826512E0,3.9750903E0,-3.7864363E0,-7.781103E-1,1.6087114E0,5.8556333E0,-4.377007E0,-1.0579472E0,-9.421976E-1,-2.392044E-3,1.2340677E0,1.6435017E-1,2.289393E-1,4.3467847E-1,-2.7890074E-1,-1.7046143E-1,-8.11555E-2,1.464181E-3,6.608581E-4,-5.474297E-2,-7.631849E-3,7.115977E-2],"categories":[],"categories_nodes":[],"categories_segments":[],"categories_sizes":[],"default_left":[0,0,0,0,0,0,0,0,0,0,0,0,0,0,0,0,0,0,0,0,0,0,0],"id":44,"left_children":[1,3,5,7,9,11,13,15,17,19,-1,21,-1,-1,-1,-1,-1,-1,-1,-1,-1,-1,-1],"loss_changes":[1.2238551E3,6.2208313E1,1.7673676E2,6.411456E1,1.0542002E0,8.066738E0,4.220984E1,2.076538E1,5.737075E0,1.2894773E0,0E0,5.06505E0,0E0,0E0,0E0,0E0,0E0,0E0,0E0,0E0,0E0,0E0,0E0],"parents":[2147483647,0,0,1,1,2,2,3,3,4,4,5,5,6,6,7,7,8,8,9,9,11,11],"right_children":[2,4,6,8,10,12,14,16,18,20,-1,22,-1,-1,-1,-1,-1,-1,-1,-1,-1,-1,-1],"split_conditions":[4.02435E-1,2.4136133E-3,7.114094E-1,6.577181E-1,6.176932E-1,6.1727273E-1,9.039627E-1,2.469596E-1,3.3719105E-1,1.8253943E-1,-2.392044E-3,9.3959734E-2,1.6435017E-1,2.289393E-1,4.3467847E-1,-2.7890074E-1,-1.7046143E-1,-8.11555E-2,1.464181E-3,6.608581E-4,-5.474297E-2,-7.631849E-3,7.115977E-2],"split_indices":[1,1,2,2,3,0,1,3,3,1,0,2,0,0,0,0,0,0,0,0,0,0,0],"split_type":[0,0,0,0,0,0,0,0,0,0,0,0,0,0,0,0,0,0,0,0,0,0,0],"sum_hessian":[9.2E1,5.1E1,4.1E1,4.2E1,9E0,1.9E1,2.2E1,3.4E1,8E0,7E0,2E0,1.7E1,2E0,1.7E1,5E0,1.3E1,2.1E1,5E0,3E0,1E0,6E0,2E0,1.5E1],"tree_param":{"num_deleted":"0","num_feature":"7","num_nodes":"23","size_leaf_vector":"1"}},{"base_weights":[1.22029416E-1,-2.873419E0,4.2402205E0,-3.3656654E0,-3.1174377E-1,3.365919E0,4.3084708E-1,-4.4526606E0,-2.4321258E0,-9.1615915E-1,2.2722632E-1,1.0481431E0,3.904358E0,-2.4914947E-1,-1.3708119E-1,-1.796539E-1,-7.01577E-2,-6.967621E-2,-5.003713E-3,-5.632363E-3,1.6886525E-2,-7.3774084E-3,7.439825E-2,4.5384638E-2,2.0480566E-1],"categories":[],"categories_nodes":[],"categories_segments":[],"categories_sizes":[],"default_left":[0,0,0,0,0,0,0,0,0,0,0,0,0,0,0,0,0,0,0,0,0,0,0,0,0],"id":45,"left_children":[1,3,5,7,9,11,-1,13,15,17,19,21,23,-1,-1,-1,-1,-1,-1,-1,-1,-1,-1,-1,-1],"loss_changes":[1.1718885E3,6.793671E1,1.2286078E2,3.5160706E1,3.5346866E0,3.9091705E1,0E0,3.7142944E0,2.671257E1,1.6590366E0,2.858974E-1,4.5607176E0,1.1871155E1,0E0,0E0,0E0,0E0,0E0,0E0,0E0,0E0,0E0,0E0,0E0,0E0],"parents":[2147483647,0,0,1,1,2,2,3,3,4,4,5,5,7,7,8,8,9,9,10,10,11,11,12,12],"right_children":[2,4,6,8,10,12,-1,14,16,18,20,22,24,-1,-1,-1,-1,-1,-1,-1,-1,-1,-1,-1,-1],"split_conditions":[4.02435E-1,6.8456376E-1,9.039627E-1,2.001701E-1,3.277756E-1,1.3455911E-1,4.3084708E-1,3.8255033E-1,2.710867E-1,1.789591E-1,7.6510066E-1,9.3959734E-2,5.797795E-1,-2.4914947E-1,-1.3708119E-1,-1.796539E-1,-7.01577E-2,-6.967621E-2,-5.003713E-3,-5.632363E-3,1.6886525E-2,-7.3774084E-3,7.439825E-2,4.5384638E-2,2.0480566E-1],"split_indices":[1,2,1,0,3,6,0,2,3,0,2,2,1,0,0,0,0,0,0,0,0,0,0,0,0],"split_type":[0,0,0,0,0,0,0,0,0,0,0,0,0,0,0,0,0,0,0,0,0,0,0,0,0],"sum_hessian":[9.3E1,5.4E1,3.9E1,4.5E1,9E0,3.4E1,5E0,1.9E1,2.6E1,4E0,5E0,7E0,2.7E1,1.3E1,6E0,1.1E1,1.5E1,2E0,2E0,1E0,4E0,2E0,5E0,2E0,2.5E1],"tree_param":{"num_deleted":"0","num_feature":"7","num_nodes":"25","size_leaf_vector":"1"}},{"base_weights":[1.4197765E-1,-2.5916436E0,3.7010663E0,-3.5889263E0,-1.1082278E0,2.8127792E0,3.1705675E-1,-4.3993974E0,-2.1676157E0,-1.5695499E0,-0E0,1.3947048E0,2.157347E-1,-2.4646567E-1,-9.018939E-2,-1.9782326E-1,-7.657178E-2,-9.5608555E-2,3.167029E-2,-1.9015586E-2,3.944585E-2,-7.131487E-3,7.9492E-2],"categories":[],"categories_nodes":[],"categories_segments":[],"categories_sizes":[],"default_left":[0,0,0,0,0,0,0,0,0,0,0,0,0,0,0,0,0,0,0,0,0,0,0],"id":46,"left_children":[1,3,5,7,9,11,-1,13,15,17,19,21,-1,-1,-1,-1,-1,-1,-1,-1,-1,-1,-1],"loss_changes":[9.631644E2,7.839847E1,8.2089294E1,2.78208E1,1.2403227E1,6.582544E1,0E0,1.7944366E1,9.32457E0,1.41703E1,2.7349923E0,6.0712547E0,0E0,0E0,0E0,0E0,0E0,0E0,0E0,0E0,0E0,0E0,0E0],"parents":[2147483647,0,0,1,1,2,2,3,3,4,4,5,5,7,7,8,8,9,9,10,10,11,11],"right_children":[2,4,6,8,10,12,-1,14,16,18,20,22,-1,-1,-1,-1,-1,-1,-1,-1,-1,-1,-1],"split_conditions":[5.326195E-1,2.8238463E-1,4.6629986E-1,4.135203E-2,5.339349E-1,4.623299E-1,3.1705675E-1,4.5323247E-1,3.645117E-2,5.337001E-1,3.9420366E-1,4.2588584E-2,2.157347E-1,-2.4646567E-1,-9.018939E-2,-1.9782326E-1,-7.657178E-2,-9.5608555E-2,3.167029E-2,-1.9015586E-2,3.944585E-2,-7.131487E-3,7.9492E-2],"split_indices":[1,0,4,6,3,6,0,4,4,4,1,6,0,0,0,0,0,0,0,0,0,0,0],"split_type":[0,0,0,0,0,0,0,0,0,0,0,0,0,0,0,0,0,0,0,0,0,0,0],"sum_hessian":[9.7E1,5.5E1,4.2E1,3.2E1,2.3E1,3.3E1,9E0,1.9E1,1.3E1,1.6E1,7E0,1.8E1,1.5E1,1.5E1,4E0,2E0,1.1E1,1.4E1,2E0,5E0,2E0,2E0,1.6E1],"tree_param":{"num_deleted":"0","num_feature":"7","num_nodes":"23","size_leaf_vector":"1"}},{"base_weights":[-2.0127635E-2,-2.8169243E0,3.866154E0,-4.2772036E0,-1.7739717E0,2.8646111E0,3.813471E-1,-4.787693E0,-1.4619023E0,-2.2100348E0,-1.3504553E-2,2.7249724E-1,3.4067607E0,-2.498782E-1,-2.275053E-2,-0E0,-9.077399E-2,-1.396509E-1,-2.3898697E-3,1.3556771E-2,-1.9546418E-2,6.7094006E-2,-5.635662E-3,1.0535444E-1,1.9531162E-1],"categories":[],"categories_nodes":[],"categories_segments":[],"categories_sizes":[],"default_left":[0,0,0,0,0,0,0,0,0,0,0,0,0,0,0,0,0,0,0,0,0,0,0,0,0],"id":47,"left_children":[1,3,5,7,9,11,-1,13,15,17,19,21,23,-1,-1,-1,-1,-1,-1,-1,-1,-1,-1,-1,-1],"loss_changes":[1.0650923E3,7.861832E1,1.3153278E2,2.5431091E1,2.6616425E1,4.6484375E1,0E0,1.4457581E1,2.4980764E0,3.4877747E1,9.7741294E-1,3.1577265E0,9.344055E0,0E0,0E0,0E0,0E0,0E0,0E0,0E0,0E0,0E0,0E0,0E0,0E0],"parents":[2147483647,0,0,1,1,2,2,3,3,4,4,5,5,7,7,8,8,9,9,10,10,11,11,12,12],"right_children":[2,4,6,8,10,12,-1,14,16,18,20,22,24,-1,-1,-1,-1,-1,-1,-1,-1,-1,-1,-1,-1],"split_conditions":[5.326195E-1,4.135203E-2,7.9292524E-1,3.1991732E-1,6.8456376E-1,1.5007901E-1,3.813471E-1,2.4136133E-3,3.2618076E-1,2.4136133E-3,8.6577183E-1,4.575847E-1,6.800577E-1,-2.498782E-1,-2.275053E-2,-0E0,-9.077399E-2,-1.396509E-1,-2.3898697E-3,1.3556771E-2,-1.9546418E-2,6.7094006E-2,-5.635662E-3,1.0535444E-1,1.9531162E-1],"split_indices":[1,6,0,0,2,6,0,1,0,1,2,0,1,0,0,0,0,0,0,0,0,0,0,0,0],"split_type":[0,0,0,0,0,0,0,0,0,0,0,0,0,0,0,0,0,0,0,0,0,0,0,0,0],"sum_hessian":[9.6E1,5.6E1,4E1,2.2E1,3.4E1,3.3E1,7E0,1.8E1,4E0,2.7E1,7E0,6E0,2.7E1,1.7E1,1E0,1E0,3E0,2.1E1,6E0,4E0,3E0,1E0,5E0,9E0,1.8E1],"tree_param":{"num_deleted":"0","num_feature":"7","num_nodes":"25","size_leaf_vector":"1"}},{"base_weights":[-1.2156936E-1,-2.192557E0,3.7622066E0,-3.576465E0,-1.2329259E0,2.9074433E0,3.1926486E-1,-5.0026193E0,-2.1933105E0,-3.4540095E0,-4.9766114E-1,2.0253553E0,3.5117078E0,-2.9653248E-1,-9.354516E-2,-1.1791829E-1,-0E0,-2.2391775E-1,-8.594313E-2,-9.850002E-2,7.6138824E-3,1.0979531E-1,-0E0,5.622452E-2,2.025725E-1],"categories":[],"categories_nodes":[],"categories_segments":[],"categories_sizes":[],"default_left":[0,0,0,0,0,0,0,0,0,0,0,0,0,0,0,0,0,0,0,0,0,0,0,0,0],"id":48,"left_children":[1,3,5,7,9,11,-1,13,15,17,19,21,23,-1,-1,-1,-1,-1,-1,-1,-1,-1,-1,-1,-1],"loss_changes":[7.400278E2,7.479199E1,5.2253723E1,3.565033E1,5.8310043E1,6.1921997E0,0E0,2.009378E1,4.956009E0,7.6791077E0,2.8232742E1,4.5372124E0,1.2965332E1,0E0,0E0,0E0,0E0,0E0,0E0,0E0,0E0,0E0,0E0,0E0,0E0],"parents":[2147483647,0,0,1,1,2,2,3,3,4,4,5,5,7,7,8,8,9,9,10,10,11,11,12,12],"right_children":[2,4,6,8,10,12,-1,14,16,18,20,22,24,-1,-1,-1,-1,-1,-1,-1,-1,-1,-1,-1,-1],"split_conditions":[5.369894E-1,4.135203E-2,6.408047E-1,3.4856805E-1,2.5637504E-1,4.8234603E-1,3.1926486E-1,2.885906E-1,7.342095E-1,5.167785E-1,1.7295796E-1,4.758729E-1,5.3691274E-1,-2.9653248E-1,-9.354516E-2,-1.1791829E-1,-0E0,-2.2391775E-1,-8.594313E-2,-9.850002E-2,7.6138824E-3,1.0979531E-1,-0E0,5.622452E-2,2.025725E-1],"split_indices":[0,6,6,3,3,3,0,2,3,2,0,3,2,0,0,0,0,0,0,0,0,0,0,0,0],"split_type":[0,0,0,0,0,0,0,0,0,0,0,0,0,0,0,0,0,0,0,0,0,0,0,0,0],"sum_hessian":[9E1,5.9E1,3.1E1,2.3E1,3.6E1,2.5E1,6E0,1E1,1.3E1,8E0,2.8E1,1.2E1,1.3E1,7E0,3E0,1.2E1,1E0,4E0,4E0,8E0,2E1,1.1E1,1E0,3E0,1E1],"tree_param":{"num_deleted":"0","num_feature":"7","num_nodes":"25","size_leaf_vector":"1"}},{"base_weights":[1.8266903E-1,-2.3031704E0,3.4181187E0,-3.6601741E0,-1.5047042E0,2.5122697E0,3.527337E-1,-2.2774284E0,-5.086038E0,-1.7458762E0,1.5663845E-2,1.4733827E0,4.2292714E0,-1.5057759E-1,-5.1235665E-2,-2.992785E-1,-6.292255E-2,-1.0069778E-1,-1.1593647E-2,2.5579745E-2,-1.676002E-2,3.2528695E-2,1.2751289E-1,1.0756462E-1,2.313768E-1],"categories":[],"categories_nodes":[],"categories_segments":[],"categories_sizes":[],"default_left":[0,0,0,0,0,0,0,0,0,0,0,0,0,0,0,0,0,0,0,0,0,0,0,0,0],"id":49,"left_children":[1,3,5,7,9,11,-1,13,15,17,19,21,23,-1,-1,-1,-1,-1,-1,-1,-1,-1,-1,-1,-1],"loss_changes":[7.9617914E2,5.465326E1,1.2296936E2,2.7112732E1,1.3767174E1,5.7414154E1,0E0,7.5461617E0,2.2730377E1,1.2296371E1,1.2331531E0,1.9286282E1,1.2553406E-1,0E0,0E0,0E0,0E0,0E0,0E0,0E0,0E0,0E0,0E0,0E0,0E0],"parents":[2147483647,0,0,1,1,2,2,3,3,4,4,5,5,7,7,8,8,9,9,10,10,11,11,12,12],"right_children":[2,4,6,8,10,12,-1,14,16,18,20,22,24,-1,-1,-1,-1,-1,-1,-1,-1,-1,-1,-1,-1],"split_conditions":[5.326195E-1,3.5567813E-2,9.039627E-1,1.574964E-2,6.8456376E-1,3.363136E-1,3.527337E-1,5.6292163E-3,2.4136133E-3,2.4136133E-3,8.6577183E-1,7.114094E-1,6.4110166E-1,-1.5057759E-1,-5.1235665E-2,-2.992785E-1,-6.292255E-2,-1.0069778E-1,-1.1593647E-2,2.5579745E-2,-1.676002E-2,3.2528695E-2,1.2751289E-1,1.0756462E-1,2.313768E-1],"split_indices":[1,6,1,6,2,4,0,6,1,1,2,2,1,0,0,0,0,0,0,0,0,0,0,0,0],"split_type":[0,0,0,0,0,0,0,0,0,0,0,0,0,0,0,0,0,0,0,0,0,0,0,0,0],"sum_hessian":[9.7E1,5.5E1,4.2E1,1.9E1,3.6E1,3.5E1,7E0,1.1E1,8E0,3.1E1,5E0,2.3E1,1.2E1,6E0,5E0,6E0,2E0,2.6E1,5E0,2E0,3E0,1.4E1,9E0,3E0,9E0],"tree_param":{"num_deleted":"0","num_feature":"7","num_nodes":"25","size_leaf_vector":"1"}},{"base_weights":[6.1963353E-2,-1.9906465E0,3.6134517E0,-2.7473109E0,-1.8361914E-1,2.6269674E0,5.6972356E0,-3.885815E0,-2.1045732E0,-7.314914E-1,9.2407095E-1,1.8197458E0,2.1520753E-1,5.27887E-2,3.0229023E-1,-2.4724825E-1,-7.281313E-2,-1.80977E-1,-4.7599338E-2,-6.0994238E-2,3.847316E-2,-9.535319E-3,7.1406156E-2,3.6602035E-2,1.170715E-1],"categories":[],"categories_nodes":[],"categories_segments":[],"categories_sizes":[],"default_left":[0,0,0,0,0,0,0,0,0,0,0,0,0,0,0,0,0,0,0,0,0,0,0,0,0],"id":50,"left_children":[1,3,5,7,9,11,13,15,17,19,21,23,-1,-1,-1,-1,-1,-1,-1,-1,-1,-1,-1,-1,-1],"loss_changes":[7.3633734E2,8.6710495E1,6.0259033E1,2.415216E1,1.2794146E1,2.810933E1,1.07034E1,3.0757614E1,5.0227127E1,1.1246485E1,4.329437E0,9.327408E0,0E0,0E0,0E0,0E0,0E0,0E0,0E0,0E0,0E0,0E0,0E0,0E0,0E0],"parents":[2147483647,0,0,1,1,2,2,3,3,4,4,5,5,6,6,7,7,8,8,9,9,10,10,11,11],"right_children":[2,4,6,8,10,12,14,16,18,20,22,24,-1,-1,-1,-1,-1,-1,-1,-1,-1,-1,-1,-1,-1],"split_conditions":[5.369894E-1,3.3634672E-1,7.9292524E-1,2.0530595E-2,6.031777E-1,3.9614856E-1,8.734526E-2,5.3060025E-1,2.504904E-1,2.2706269E-1,7.2834427E-3,3.4649685E-1,2.1520753E-1,5.27887E-2,3.0229023E-1,-2.4724825E-1,-7.281313E-2,-1.80977E-1,-4.7599338E-2,-6.0994238E-2,3.847316E-2,-9.535319E-3,7.1406156E-2,3.6602035E-2,1.170715E-1],"split_indices":[0,0,0,6,3,4,4,3,3,6,6,6,0,0,0,0,0,0,0,0,0,0,0,0,0],"split_type":[0,0,0,0,0,0,0,0,0,0,0,0,0,0,0,0,0,0,0,0,0,0,0,0,0],"sum_hessian":[9.9E1,6.3E1,3.6E1,4.4E1,1.9E1,2.6E1,1E1,1.4E1,3E1,1.3E1,6E0,1.9E1,7E0,1E0,9E0,9E0,5E0,1.2E1,1.8E1,1E1,3E0,2E0,4E0,7E0,1.2E1],"tree_param":{"num_deleted":"0","num_feature":"7","num_nodes":"25","size_leaf_vector":"1"}},{"base_weights":[2.6213892E-2,-2.1037953E0,3.0776765E0,-3.1333034E0,-1.2929704E0,2.2558265E0,3.2407618E-1,-3.72489E0,-4.2526856E-1,-2.0109768E0,-9.91627E-2,1.3604745E0,3.6224425E0,-2.2812109E-1,-8.3820336E-2,-3.9222777E-2,3.1766664E-2,-1.2757848E-1,-1.9826988E-2,-6.9064416E-2,3.3501446E-2,3.3126183E-2,1.2195005E-1,7.650202E-2,2.022456E-1],"categories":[],"categories_nodes":[],"categories_segments":[],"categories_sizes":[],"default_left":[0,0,0,0,0,0,0,0,0,0,0,0,0,0,0,0,0,0,0,0,0,0,0,0,0],"id":51,"left_children":[1,3,5,7,9,11,-1,13,15,17,19,21,23,-1,-1,-1,-1,-1,-1,-1,-1,-1,-1,-1,-1],"loss_changes":[6.9553436E2,4.809543E1,1.07592896E2,4.125589E1,3.1304554E1,3.9846756E1,0E0,2.9472382E1,2.7990294E0,1.8766716E1,1.5789633E1,1.6140156E1,5.6292877E0,0E0,0E0,0E0,0E0,0E0,0E0,0E0,0E0,0E0,0E0,0E0,0E0],"parents":[2147483647,0,0,1,1,2,2,3,3,4,4,5,5,7,7,8,8,9,9,10,10,11,11,12,12],"right_children":[2,4,6,8,10,12,-1,14,16,18,20,22,24,-1,-1,-1,-1,-1,-1,-1,-1,-1,-1,-1,-1],"split_conditions":[5.326195E-1,2.885906E-1,9.039627E-1,2.4071755E-1,3.0123797E-1,3.363136E-1,3.2407618E-1,3.7001374E-1,1.2751678E-1,6.8456376E-1,1.7295796E-1,7.114094E-1,6.4110166E-1,-2.2812109E-1,-8.3820336E-2,-3.9222777E-2,3.1766664E-2,-1.2757848E-1,-1.9826988E-2,-6.9064416E-2,3.3501446E-2,3.3126183E-2,1.2195005E-1,7.650202E-2,2.022456E-1],"split_indices":[1,2,1,1,4,4,0,4,2,2,0,2,1,0,0,0,0,0,0,0,0,0,0,0,0],"split_type":[0,0,0,0,0,0,0,0,0,0,0,0,0,0,0,0,0,0,0,0,0,0,0,0,0],"sum_hessian":[1.05E2,6.2E1,4.3E1,2.6E1,3.6E1,3.6E1,7E0,2.1E1,5E0,2.2E1,1.4E1,2.3E1,1.3E1,1.4E1,7E0,4E0,1E0,1.6E1,6E0,5E0,9E0,1.5E1,8E0,3E0,1E1],"tree_param":{"num_deleted":"0","num_feature":"7","num_nodes":"25","size_leaf_vector":"1"}},{"base_weights":[2.4517745E-1,-1.6897719E0,3.168686E0,-3.1930676E0,-6.378589E-1,2.3225687E0,4.870569E0,-3.6797698E0,-2.9382253E-2,-2.1580913E0,-4.7481764E-2,1.9408692E0,2.051274E-1,5.671206E-2,2.7472052E-1,-2.0799339E-1,-3.472052E-2,-1.3517478E-1,-0E0,-3.1175537E-2,3.580902E-2,3.218459E-2,1.1139895E-1],"categories":[],"categories_nodes":[],"categories_segments":[],"categories_sizes":[],"default_left":[0,0,0,0,0,0,0,0,0,0,0,0,0,0,0,0,0,0,0,0,0,0,0],"id":52,"left_children":[1,3,5,7,9,11,13,15,-1,17,19,21,-1,-1,-1,-1,-1,-1,-1,-1,-1,-1,-1],"loss_changes":[5.5421576E2,9.087903E1,4.4128174E1,2.7844406E1,3.198735E1,1.0456848E1,2.1075653E1,2.529123E1,0E0,1.1897518E1,1.2314349E1,7.589508E0,0E0,0E0,0E0,0E0,0E0,0E0,0E0,0E0,0E0,0E0,0E0],"parents":[2147483647,0,0,1,1,2,2,3,3,4,4,5,5,6,6,7,7,9,9,10,10,11,11],"right_children":[2,4,6,8,10,12,14,16,-1,18,20,22,-1,-1,-1,-1,-1,-1,-1,-1,-1,-1,-1],"split_conditions":[5.369894E-1,4.135203E-2,5.7371885E-1,5.627697E-1,2.469596E-1,4.6629986E-1,1.16231084E-1,4.5323247E-1,-2.9382253E-2,2.2706269E-1,3.946646E-1,3.852491E-1,2.051274E-1,5.671206E-2,2.7472052E-1,-2.0799339E-1,-3.472052E-2,-1.3517478E-1,-0E0,-3.1175537E-2,3.580902E-2,3.218459E-2,1.1139895E-1],"split_indices":[0,6,6,3,3,4,4,4,0,6,3,3,0,0,0,0,0,0,0,0,0,0,0],"split_type":[0,0,0,0,0,0,0,0,0,0,0,0,0,0,0,0,0,0,0,0,0,0,0],"sum_hessian":[9.6E1,5.8E1,3.8E1,2.3E1,3.5E1,2.7E1,1.1E1,1.9E1,4E0,9E0,2.6E1,2.4E1,3E0,2E0,9E0,1.6E1,3E0,7E0,2E0,1.5E1,1.1E1,5E0,1.9E1],"tree_param":{"num_deleted":"0","num_feature":"7","num_nodes":"23","size_leaf_vector":"1"}},{"base_weights":[-3.4593813E-2,-2.149329E0,2.5820923E0,-2.7571561E0,-6.031456E-1,1.8707734E0,2.4856436E-1,-4.393922E0,-1.6833279E0,-1.1238523E0,2.1259886E-1,9.1880155E-1,3.1579616E0,-2.3667637E-1,-0E0,-9.8833695E-2,-7.6639215E-3,1.305028E-2,-6.5891854E-2,1.5771344E-2,-7.609234E-3,-1.5762119E-2,5.737723E-2,8.854651E-2,1.7628406E-1],"categories":[],"categories_nodes":[],"categories_segments":[],"categories_sizes":[],"default_left":[0,0,0,0,0,0,0,0,0,0,0,0,0,0,0,0,0,0,0,0,0,0,0,0,0],"id":53,"left_children":[1,3,5,7,9,11,-1,13,15,17,19,21,23,-1,-1,-1,-1,-1,-1,-1,-1,-1,-1,-1,-1],"loss_changes":[5.2013116E2,4.6871216E1,6.13938E1,5.7027252E1,7.1262717E0,3.8353256E1,0E0,2.098996E1,1.0256027E1,3.1360588E0,3.2689723E-1,6.372841E0,3.6714172E-1,0E0,0E0,0E0,0E0,0E0,0E0,0E0,0E0,0E0,0E0,0E0,0E0],"parents":[2147483647,0,0,1,1,2,2,3,3,4,4,5,5,7,7,8,8,9,9,10,10,11,11,12,12],"right_children":[2,4,6,8,10,12,-1,14,16,18,20,22,24,-1,-1,-1,-1,-1,-1,-1,-1,-1,-1,-1,-1],"split_conditions":[3.9420366E-1,5.167785E-1,4.6629986E-1,2.710867E-1,7.6510066E-1,7.315436E-1,2.4856436E-1,5.337001E-1,7.342095E-1,5.57047E-1,5.291427E-1,1.6778524E-1,1.2792297E-1,-2.3667637E-1,-0E0,-9.8833695E-2,-7.6639215E-3,1.305028E-2,-6.5891854E-2,1.5771344E-2,-7.609234E-3,-1.5762119E-2,5.737723E-2,8.854651E-2,1.7628406E-1],"split_indices":[1,2,4,3,2,2,0,4,3,2,6,2,4,0,0,0,0,0,0,0,0,0,0,0,0],"split_type":[0,0,0,0,0,0,0,0,0,0,0,0,0,0,0,0,0,0,0,0,0,0,0,0,0],"sum_hessian":[9.2E1,5.1E1,4.1E1,3.6E1,1.5E1,3.3E1,8E0,1.3E1,2.3E1,9E0,6E0,2E1,1.3E1,1.2E1,1E0,1.9E1,4E0,1E0,8E0,5E0,1E0,3E0,1.7E1,4E0,9E0],"tree_param":{"num_deleted":"0","num_feature":"7","num_nodes":"25","size_leaf_vector":"1"}},{"base_weights":[1.7999876E-1,-1.4741687E0,2.7228205E0,-2.1549687E0,-1.0244598E-1,1.717365E0,4.2103915E0,-2.535478E0,-3.0349678E-1,2.0283107E-1,-7.377907E-2,1.2624769E0,2.299526E-1,2.9281588E0,5.629047E0,-1.5962401E-1,-4.61079E-2,-4.6804376E-2,5.147585E-2,-2.6718413E-2,3.1214742E-2,3.1239107E-2,9.461274E-2,1.6553776E-1,4.492579E-2,7.634541E-2,3.0620468E-1],"categories":[],"categories_nodes":[],"categories_segments":[],"categories_sizes":[],"default_left":[0,0,0,0,0,0,0,0,0,0,0,0,0,0,0,0,0,0,0,0,0,0,0,0,0,0,0],"id":54,"left_children":[1,3,5,7,9,11,13,15,17,19,-1,21,-1,23,25,-1,-1,-1,-1,-1,-1,-1,-1,-1,-1,-1,-1],"loss_changes":[4.163515E2,5.5585632E1,5.050824E1,2.7126678E1,9.229489E0,2.6378777E1,9.947205E0,3.1623047E1,7.7003927E0,5.9352465E0,0E0,7.80299E0,0E0,4.369644E0,2.0684814E0,0E0,0E0,0E0,0E0,0E0,0E0,0E0,0E0,0E0,0E0,0E0,0E0],"parents":[2147483647,0,0,1,1,2,2,3,3,4,4,5,5,6,6,7,7,8,8,9,9,11,11,13,13,14,14],"right_children":[2,4,6,8,10,12,14,16,18,20,-1,22,-1,24,26,-1,-1,-1,-1,-1,-1,-1,-1,-1,-1,-1,-1],"split_conditions":[5.369894E-1,2.965671E-1,7.045754E-1,4.5323247E-1,4.9471176E-1,4.6629986E-1,7.919463E-1,5.302013E-1,1.7878148E-1,1.2751678E-1,-7.377907E-2,7.785235E-1,2.299526E-1,9.100373E-1,7.543511E-1,-1.5962401E-1,-4.61079E-2,-4.6804376E-2,5.147585E-2,-2.6718413E-2,3.1214742E-2,3.1239107E-2,9.461274E-2,1.6553776E-1,4.492579E-2,7.634541E-2,3.0620468E-1],"split_indices":[0,0,0,4,0,4,2,2,0,2,0,2,0,0,0,0,0,0,0,0,0,0,0,0,0,0,0],"split_type":[0,0,0,0,0,0,0,0,0,0,0,0,0,0,0,0,0,0,0,0,0,0,0,0,0,0,0],"sum_hessian":[9.7E1,5.9E1,3.8E1,3.9E1,2E1,2.4E1,1.4E1,3.2E1,7E0,1.7E1,3E0,2.2E1,2E0,9E0,5E0,2.2E1,1E1,5E0,2E0,6E0,1.1E1,1.2E1,1E1,7E0,2E0,1E0,4E0],"tree_param":{"num_deleted":"0","num_feature":"7","num_nodes":"27","size_leaf_vector":"1"}},{"base_weights":[1.3623507E-1,-1.281062E0,2.7268288E0,-2.8160472E0,-3.488496E-1,1.9400384E0,4.7731075E0,-3.2685597E0,-8.970838E-1,-1.5858032E0,4.5474958E-2,8.464853E-1,2.632701E0,4.444481E-2,5.135022E0,-1.8267904E-1,-0E0,-0E0,-5.4502547E-2,-1.063033E-1,-1.0944634E-2,-3.7228134E-2,2.808628E-2,1.0064336E-2,6.321503E-2,6.3141465E-2,1.4878778E-1,1.0737722E-1,2.8781286E-1],"categories":[],"categories_nodes":[],"categories_segments":[],"categories_sizes":[],"default_left":[0,0,0,0,0,0,0,0,0,0,0,0,0,0,0,0,0,0,0,0,0,0,0,0,0,0,0,0,0],"id":55,"left_children":[1,3,5,7,9,11,13,15,17,19,21,23,25,-1,27,-1,-1,-1,-1,-1,-1,-1,-1,-1,-1,-1,-1,-1,-1],"loss_changes":[3.6345862E2,9.02808E1,4.6418427E1,1.749176E1,2.0224354E1,1.7875046E1,7.4848633E0,2.3940948E1,1.1124992E0,6.685032E0,1.3451393E1,2.8338404E0,3.3373184E0,0E0,1.6952057E0,0E0,0E0,0E0,0E0,0E0,0E0,0E0,0E0,0E0,0E0,0E0,0E0,0E0,0E0],"parents":[2147483647,0,0,1,1,2,2,3,3,4,4,5,5,6,6,7,7,8,8,9,9,10,10,11,11,12,12,14,14],"right_children":[2,4,6,8,10,12,14,16,18,20,22,24,26,-1,28,-1,-1,-1,-1,-1,-1,-1,-1,-1,-1,-1,-1,-1,-1],"split_conditions":[5.369894E-1,2.001701E-1,6.408047E-1,4.5323247E-1,2.5637504E-1,4.8234603E-1,8.734526E-2,5.627697E-1,2.526481E-1,6.107383E-1,4.509814E-2,5.301126E-1,5.3691274E-1,4.444481E-2,8.6046714E-1,-1.8267904E-1,-0E0,-0E0,-5.4502547E-2,-1.063033E-1,-1.0944634E-2,-3.7228134E-2,2.808628E-2,1.0064336E-2,6.321503E-2,6.3141465E-2,1.4878778E-1,1.0737722E-1,2.8781286E-1],"split_indices":[0,0,6,4,3,3,4,3,3,2,6,6,2,0,0,0,0,0,0,0,0,0,0,0,0,0,0,0,0],"split_type":[0,0,0,0,0,0,0,0,0,0,0,0,0,0,0,0,0,0,0,0,0,0,0,0,0,0,0,0,0],"sum_hessian":[9.7E1,6.3E1,3.4E1,2.3E1,4E1,2.6E1,8E0,1.8E1,5E0,9E0,3.1E1,1.1E1,1.5E1,1E0,7E0,1.6E1,2E0,1E0,4E0,6E0,3E0,1.2E1,1.9E1,5E0,6E0,4E0,1.1E1,2E0,5E0],"tree_param":{"num_deleted":"0","num_feature":"7","num_nodes":"29","size_leaf_vector":"1"}},{"base_weights":[-9.393352E-2,-1.8896422E0,2.4198854E0,-3.122999E0,-1.069532E0,3.646844E-1,2.9170897E0,-3.7041574E0,-1.8483863E0,-1.7436813E-1,-6.823587E-1,5.685574E-2,7.760653E-2,2.4894996E0,2.417628E-1,-4.746226E-2,-1.929609E-1,-9.881626E-2,-2.1320352E-2,-5.4803204E-2,-1.721551E-2,-1.8320488E-2,4.1254908E-2,9.414223E-2,1.6005988E-1],"categories":[],"categories_nodes":[],"categories_segments":[],"categories_sizes":[],"default_left":[0,0,0,0,0,0,0,0,0,0,0,0,0,0,0,0,0,0,0,0,0,0,0,0,0],"id":56,"left_children":[1,3,5,7,9,11,13,15,17,-1,19,-1,21,23,-1,-1,-1,-1,-1,-1,-1,-1,-1,-1,-1],"loss_changes":[3.791889E2,4.5803528E1,3.437294E1,6.6723175E0,2.6223103E1,1.5642614E0,1.019545E1,9.819641E-1,3.7241936E-1,0E0,3.3944464E0,0E0,2.6714823E0,4.2581177E0,0E0,0E0,0E0,0E0,0E0,0E0,0E0,0E0,0E0,0E0,0E0],"parents":[2147483647,0,0,1,1,2,2,3,3,4,4,5,5,6,6,7,7,8,8,10,10,12,12,13,13],"right_children":[2,4,6,8,10,12,14,16,18,-1,20,-1,22,24,-1,-1,-1,-1,-1,-1,-1,-1,-1,-1,-1],"split_conditions":[5.326195E-1,2.184071E-1,5.369894E-1,3.3557048E-1,6.2377404E-2,4.575847E-1,9.007538E-1,1.3422819E-2,1.7295796E-1,-1.7436813E-1,2.4161074E-1,5.685574E-2,3.2214764E-1,5.765006E-1,2.417628E-1,-4.746226E-2,-1.929609E-1,-9.881626E-2,-2.1320352E-2,-5.4803204E-2,-1.721551E-2,-1.8320488E-2,4.1254908E-2,9.414223E-2,1.6005988E-1],"split_indices":[1,0,0,2,3,0,0,2,0,0,2,0,2,3,0,0,0,0,0,0,0,0,0,0,0],"split_type":[0,0,0,0,0,0,0,0,0,0,0,0,0,0,0,0,0,0,0,0,0,0,0,0,0],"sum_hessian":[8.2E1,4.8E1,3.4E1,1.8E1,3E1,7E0,2.7E1,1.1E1,7E0,3E0,2.7E1,1E0,6E0,2.4E1,3E0,1E0,1E1,6E0,1E0,1.1E1,1.6E1,4E0,2E0,1.5E1,9E0],"tree_param":{"num_deleted":"0","num_feature":"7","num_nodes":"25","size_leaf_vector":"1"}},{"base_weights":[-4.8796855E-2,-1.9063711E0,1.8449048E0,-2.3188117E0,2.6488584E-1,1.1181831E0,4.044675E0,-3.8046489E0,-1.5447938E0,-1.9548996E-1,6.9228446E-1,4.505724E-1,1.9497635E0,2.609012E0,2.7564E-1,-2.0408611E-1,-2.5673723E-3,-1.3346155E-1,-4.655121E-2,-1.8526847E-2,5.693499E-4,4.404989E-2,-0E0,-1.1842815E-2,4.1982908E-2,3.4881033E-2,1.4870775E-1,1.4535128E-1,1.0572968E-2],"categories":[],"categories_nodes":[],"categories_segments":[],"categories_sizes":[],"default_left":[0,0,0,0,0,0,0,0,0,0,0,0,0,0,0,0,0,0,0,0,0,0,0,0,0,0,0,0,0],"id":57,"left_children":[1,3,5,7,9,11,13,15,17,19,21,23,25,27,-1,-1,-1,-1,-1,-1,-1,-1,-1,-1,-1,-1,-1,-1,-1],"loss_changes":[3.552924E2,4.649083E1,7.489206E1,4.3040436E1,1.9558898E0,2.0533161E1,1.0097656E1,1.3936279E1,1.7859222E1,2.2120023E-1,7.083392E-1,6.410939E0,1.9363632E1,4.7894554E0,0E0,0E0,0E0,0E0,0E0,0E0,0E0,0E0,0E0,0E0,0E0,0E0,0E0,0E0,0E0],"parents":[2147483647,0,0,1,1,2,2,3,3,4,4,5,5,6,6,7,7,8,8,9,9,10,10,11,11,12,12,13,13],"right_children":[2,4,6,8,10,12,14,16,18,20,22,24,26,28,-1,-1,-1,-1,-1,-1,-1,-1,-1,-1,-1,-1,-1,-1,-1],"split_conditions":[3.9373642E-1,5.627697E-1,7.045754E-1,3.5567813E-2,2.3703743E-2,7.114094E-1,7.852349E-1,3.2462174E-1,1.9968615E-1,2.790083E-1,9.975372E-2,1.6712517E-1,4.670459E-1,9.100373E-1,2.7564E-1,-2.0408611E-1,-2.5673723E-3,-1.3346155E-1,-4.655121E-2,-1.8526847E-2,5.693499E-4,4.404989E-2,-0E0,-1.1842815E-2,4.1982908E-2,3.4881033E-2,1.4870775E-1,1.4535128E-1,1.0572968E-2],"split_indices":[0,3,0,6,6,2,2,4,3,0,6,4,3,0,0,0,0,0,0,0,0,0,0,0,0,0,0,0,0],"split_type":[0,0,0,0,0,0,0,0,0,0,0,0,0,0,0,0,0,0,0,0,0,0,0,0,0,0,0,0,0],"sum_hessian":[9.9E1,5E1,4.9E1,4.2E1,8E0,3.8E1,1.1E1,1.3E1,2.9E1,4E0,4E0,2.2E1,1.6E1,7E0,4E0,1.2E1,1E0,9E0,2E1,2E0,2E0,3E0,1E0,8E0,1.4E1,8E0,8E0,6E0,1E0],"tree_param":{"num_deleted":"0","num_feature":"7","num_nodes":"29","size_leaf_vector":"1"}},{"base_weights":[-9.500625E-3,-1.3829563E0,2.3424091E0,-2.148039E0,-1.4166373E-1,1.7724808E0,2.392491E-1,-2.5188541E0,-1.8470933E-1,-9.7829133E-1,4.1886562E-1,1.240608E0,2.864561E0,-1.5603879E-1,-3.4481328E-2,-5.8288068E-2,4.0876E-2,-7.829006E-2,1.3471179E-2,7.292264E-3,5.541051E-2,3.941428E-3,7.8589424E-2,3.7025414E-2,1.5125021E-1],"categories":[],"categories_nodes":[],"categories_segments":[],"categories_sizes":[],"default_left":[0,0,0,0,0,0,0,0,0,0,0,0,0,0,0,0,0,0,0,0,0,0,0,0,0],"id":58,"left_children":[1,3,5,7,9,11,-1,13,15,17,19,21,23,-1,-1,-1,-1,-1,-1,-1,-1,-1,-1,-1,-1],"loss_changes":[3.0678638E2,5.6448227E1,3.958615E1,2.6201584E1,1.1720619E1,1.3461128E1,0E0,3.159938E1,7.870531E0,7.8819485E0,2.5360434E0,8.175728E0,4.5050812E-1,0E0,0E0,0E0,0E0,0E0,0E0,0E0,0E0,0E0,0E0,0E0,0E0],"parents":[2147483647,0,0,1,1,2,2,3,3,4,4,5,5,7,7,8,8,9,9,10,10,11,11,12,12],"right_children":[2,4,6,8,10,12,-1,14,16,18,20,22,24,-1,-1,-1,-1,-1,-1,-1,-1,-1,-1,-1,-1],"split_conditions":[5.369894E-1,2.965671E-1,4.9587345E-1,4.5323247E-1,3.9505687E-1,7.045754E-1,2.392491E-1,5.302013E-1,3.557047E-1,2.2706269E-1,3.858322E-1,5.704698E-1,8.734526E-2,-1.5603879E-1,-3.4481328E-2,-5.8288068E-2,4.0876E-2,-7.829006E-2,1.3471179E-2,7.292264E-3,5.541051E-2,3.941428E-3,7.8589424E-2,3.7025414E-2,1.5125021E-1],"split_indices":[0,0,4,4,3,0,0,2,2,6,4,2,4,0,0,0,0,0,0,0,0,0,0,0,0],"split_type":[0,0,0,0,0,0,0,0,0,0,0,0,0,0,0,0,0,0,0,0,0,0,0,0,0],"sum_hessian":[9.3E1,5.9E1,3.4E1,3.6E1,2.3E1,2.9E1,5E0,3E1,6E0,9E0,1.4E1,2.1E1,8E0,2.2E1,8E0,3E0,3E0,6E0,3E0,1.1E1,3E0,5E0,1.6E1,1E0,7E0],"tree_param":{"num_deleted":"0","num_feature":"7","num_nodes":"25","size_leaf_vector":"1"}},{"base_weights":[8.299626E-2,-1.5869186E0,2.389474E0,-2.3532867E0,-7.359542E-1,1.7968607E0,2.1758135E-1,-3.289218E0,-1.0415641E0,-1.0325313E0,3.2936373E-1,2.6579916E-1,2.111881E0,-2.0023905E-1,-1.0985377E-1,-1.275397E-1,-2.8456315E-2,-9.376659E-2,-2.7017388E-2,-4.265218E-3,3.4334548E-2,-5.604996E-3,4.201823E-2,7.530982E-2,1.3928054E-1],"categories":[],"categories_nodes":[],"categories_segments":[],"categories_sizes":[],"default_left":[0,0,0,0,0,0,0,0,0,0,0,0,0,0,0,0,0,0,0,0,0,0,0,0,0],"id":59,"left_children":[1,3,5,7,9,11,-1,13,15,17,19,21,23,-1,-1,-1,-1,-1,-1,-1,-1,-1,-1,-1,-1],"loss_changes":[3.8518268E2,3.5783966E1,4.0403397E1,3.297148E1,9.572911E0,